9996 32
. 0.037570454 0.032615107 -0.0070150574 -0.0013390544 0.044938795 0.029276581 -0.0043488136 0.013132928 0.007952289 0.04855251 -0.054639213 -0.03340281 0.0015709385 0.014919759 -0.012428747 0.002489482 0.04594464 0.06385056 -0.027506541 -0.008397459 -0.026773218 -0.032869227 0.02942912 0.013511575 -0.04090608 -0.01531325 0.06256444 0.02470194 -0.040308375 -0.06300073 0.010914999 0.0017179244
영화 -0.07976415 0.03918341 0.011709948 0.028449744 0.048660535 -0.006882951 0.061259747 0.041181277 -0.058043662 -0.009329114 0.04627677 0.061712727 -0.008001359 0.06663141 -0.049960908 0.05542096 -0.005890516 0.13882327 -0.008883628 0.03896485 0.011527768 0.017354537 -0.02148382 0.036667153 -0.0522636 -0.021983283 -0.008426516 0.013335045 -0.09706151 -0.010803628 -0.07550645 -0.04805997
다 -0.013313972 0.05439637 -0.026206475 -0.051856883 0.1450126 -0.007850691 -0.010630762 0.010881626 0.0058896793 0.057584412 0.0034481965 0.04631403 0.006929983 -0.035405148 0.022029331 0.019707162 0.017607166 0.05980579 -0.022955628 0.028637143 0.06155688 0.025227264 0.10154381 0.043895844 -0.09825224 0.025078613 0.012590578 0.06311935 -0.019038174 -0.02407281 0.0047308523 -0.05274511
고 -0.037548028 0.06683935 -0.036790527 -0.03908596 0.035855066 -0.0026553457 -0.04020419 0.022565922 0.035666518 0.013283923 -0.028286641 -0.04690982 0.0012267724 0.044170216 -0.03581571 0.020055033 -0.04973716 0.029375808 0.007567811 -0.008768056 0.031821586 0.004200221 0.05392777 -0.0156046385 0.0601356 0.06537929 -0.029383766 0.021652546 -0.010111504 0.01155367 -0.018764412 -0.0010953904
하 0.021620974 0.063325524 -0.025024688 -0.04730969 0.043825768 -0.007596246 0.05150733 -0.030952292 0.07262975 0.032903187 -0.03732164 -0.0010154843 0.0069925725 0.011740998 0.017148428 -0.046721946 -0.014919808 -0.026916752 0.02697963 0.0019425104 -0.036493097 0.016138466 -0.009630257 0.0032899634 -0.021473734 -0.0138168875 0.026937887 -0.021583533 0.037223905 -0.017317353 -0.042566635 0.021714373
을 0.045102805 -0.0029926416 0.054762647 -0.040804338 0.0053991238 0.02998949 -0.023055827 -0.023381684 -0.025538435 0.035109647 0.026774775 0.07904734 -0.05370062 0.032619443 0.012728319 -0.05885907 0.0051655555 -0.04824347 0.017615478 -0.027164547 -0.014532411 0.005412019 -0.030329991 0.0031069475 0.0006569651 -0.021321824 0.03847477 -0.010753196 0.092350945 0.032871705 -0.037221096 -0.012724123
보 0.0368919 -0.0019949127 -0.03275454 0.0025392876 0.03185875 -0.015978169 -0.06422725 0.00023792459 0.015902514 0.051086787 0.0534642 -0.059074633 -0.059042104 -0.03645471 -0.024655055 0.032724757 -0.062311508 -0.014953487 0.0016639313 0.012434852 0.03452032 0.054356515 0.066247016 0.0045177867 -0.0667685 0.08443861 0.026960593 0.035528522 -0.0519966 0.061366107 0.014495169 -0.015672665
.. 0.0076243374 0.024128303 -0.02973239 0.015349975 -0.035724834 -0.0014571277 0.048990853 -0.04442801 0.03249581 -0.029014615 -0.08556034 0.0011430967 -0.012624712 0.0423065 0.005054893 0.025346547 -0.01920313 0.024188612 -0.008791198 -0.024383588 0.013357469 0.012359941 -0.0616315 -0.04135335 0.07117818 -0.054212566 0.048190597 -0.06302922 0.023928164 -0.093788855 -0.020014623 0.07217425
게 0.0022071395 -0.0043147285 -0.023342079 0.027552715 0.017318977 -0.012117322 0.003043746 -0.013599042 0.08235296 -0.07122283 0.084982134 0.02002438 -0.0045803804 -0.018996136 -0.020019902 0.06905826 -0.07219167 0.051945355 -0.0069436166 0.0035110735 0.069928594 0.035126783 0.023970528 0.026122956 -0.0631717 0.064222865 -0.053782485 -0.0067288005 -0.058914628 0.08301055 -0.054151747 -0.0038311116
, -0.07875467 0.023576872 0.0105925985 -0.006622448 0.019404821 0.013893232 -0.005505141 0.05716386 -0.046273902 -0.018326545 -0.019054357 0.027433677 -0.020064542 0.018667715 0.01866729 0.033432588 -0.026345117 0.01911019 0.060402554 0.014509316 -0.00041189592 -0.044951007 0.033754118 0.014664917 0.031611968 0.07530512 0.010899438 0.026445257 -0.054686133 0.009928401 -0.011111616 -0.03831557
! -0.07177984 -0.032925554 0.07158991 0.056033734 0.022353344 -0.037393376 0.019474626 -0.05334227 -0.010697853 -0.023473699 -0.0072638784 -0.03140559 0.029156972 0.025827039 -0.06400917 0.02891326 0.011720665 0.053967346 -0.122256555 0.062519334 0.058869332 0.073385626 0.06980985 0.08068403 -0.11374779 0.0071137105 -0.0054997536 0.08352609 -0.08223516 0.06025527 0.012197341 -0.06172403
지 -0.006093277 -0.041020535 -0.050788105 -0.008190299 -0.1130549 -0.021558473 0.1267951 -0.0704461 0.016250316 -0.039681263 0.058572408 0.031158581 0.03635423 0.048182998 -0.00033217669 -0.1145858 -0.032839563 -0.14198898 0.022074288 -0.010253718 -0.044744924 -0.00751012 -0.1087981 -0.04010897 0.08552642 -0.17528762 -0.010489987 -0.13777207 0.03362853 0.00059981365 -0.011932554 0.08871652
있 0.020626733 -0.024356784 -0.0048257494 0.100538276 -0.0037363698 0.0025514683 -0.020898016 -0.060996246 0.08132695 0.010458044 0.059946515 -0.03893947 -0.02666642 -0.055961143 -0.04332113 0.011510973 -0.0395546 -0.14400059 -0.020721119 0.05265872 0.09757947 0.061628994 0.09419981 0.028679434 -0.1211079 0.08199324 -0.018389042 0.024019925 -0.019939095 0.0992766 -0.026832541 -0.00064769515
없 0.0457598 0.018331006 -0.09524145 -0.061934106 -0.123415664 0.052159227 0.16333753 0.042308904 -0.012257855 0.006390885 -0.11906562 0.033337634 -0.08185631 0.038891725 0.1248559 -0.17082633 0.036750063 0.07103636 0.14717825 -0.15867954 -0.14714886 -0.102610216 -0.30167767 -0.15441144 0.15420447 -0.26054397 -0.015415733 -0.18774384 0.19691256 -0.10134093 0.082905024 0.1564405
? 0.011532803 0.08460317 -0.056993615 -0.049051154 0.010340044 0.07400109 0.10159364 0.046151295 0.025272118 0.044812635 0.014325276 0.062011197 -0.023111997 0.12354662 0.11035108 -0.11133821 0.09455389 -0.03560345 0.024436299 0.0071785036 0.018445868 -0.06412768 -0.01486277 -0.10701883 0.056862265 -0.15473838 0.05228344 -0.11839631 0.08524835 -0.07623148 0.043134186 0.14388026
좋 -0.020970568 -0.005327568 0.067060165 0.17268999 0.16753983 -0.108106755 -0.070055634 -0.10410346 0.1749495 -0.0895721 0.12151326 -0.09626541 0.16112666 0.033128545 -0.12683451 0.14131722 -0.09779656 0.019205907 -0.08775691 0.075677074 0.22074732 0.13009667 0.15688187 0.16230185 -0.07519846 0.22126341 -0.08710381 0.06644952 -0.13120337 0.10989222 -0.13306308 -0.10071103
나 0.006929467 0.0068004993 0.044996742 0.018593872 -0.038654823 0.0130656855 -0.018880934 0.005275849 0.04854203 -0.06342481 0.07065528 -0.044721894 -0.04796456 -0.019961394 0.044900805 0.025604036 -0.08109642 -0.07135314 0.045747414 -0.0071694152 -0.02440467 -0.05682756 -0.005145735 -0.03850917 0.06292582 0.04828876 -0.054666154 -0.031059768 0.05730139 0.023163594 -0.022874888 0.036260996
었 0.03600134 0.061733615 0.050303355 0.08139327 0.038300946 -0.053187206 0.0016779972 0.031696785 0.038375158 -0.012187765 0.10570771 -0.0016062788 -0.01669893 -0.034401193 -0.062217757 0.068300925 -8.2544255e-05 0.032413203 0.0224009 0.03786829 0.02697291 0.014946117 0.07138979 -0.018361254 -0.079312615 0.041089807 -0.06525255 0.050063416 -0.0031552014 0.026449092 -0.026477864 0.0002450436
만 -0.014075679 0.03494182 0.03476804 -0.017923964 0.15440497 0.078409836 0.025983132 0.03934183 -0.10280689 -0.0015725516 -0.071734294 0.050268546 -0.09076823 0.009414316 0.0632238 -0.07295872 0.10845782 0.020519124 0.010750116 -0.00991494 -0.03427959 -0.06796406 0.028316863 -0.13241462 -0.08402868 -0.13393466 0.07848054 -0.03109833 0.0059932815 -0.026480956 0.07869084 0.083008386
는데 0.061396495 0.016873712 0.06033334 0.031763006 -0.15335546 -0.050364815 0.0153424535 0.06423023 0.00952319 -0.08824713 0.015719645 0.001513786 -0.003566944 -0.09626427 0.006747909 0.041763164 -0.057816796 -0.28156707 0.06515482 0.062395364 -0.006778102 0.02210812 -0.08309827 0.03615113 0.09875953 0.009610314 -0.09036756 0.038688578 0.13775912 0.0648145 -0.090536386 0.019807313
너무 -0.0902837 0.031556044 -0.07754436 -0.04551296 -0.08344093 -0.0349528 0.004427348 0.019312957 0.07945033 0.012338495 0.007144703 -0.017869193 0.085784756 -0.010382816 -0.06626466 0.07808895 0.019870522 0.17731968 0.061804067 0.03369113 -0.007316262 -0.030592114 -0.0712452 -0.011399024 0.2255363 0.06182073 0.0031941573 -0.019024812 0.14144017 -0.07359272 -0.040151626 -0.0566836
봤 -0.014289018 0.052797638 0.036602538 0.053684246 0.057471946 -0.067698106 0.02593785 -0.036246046 0.11120851 -0.059142165 0.046831626 -0.046067648 0.04215368 0.074413486 -0.03861338 0.04543026 -0.051621567 0.08312597 -0.026221849 -0.0009696978 0.08848181 0.014002632 -0.0034688092 0.035457738 0.05673446 0.084705204 0.016821329 0.0049493983 0.051654465 0.037903007 -0.0089164665 0.0023938501
적 -0.00694529 0.065038525 0.022569181 0.029157033 0.022856487 0.023131866 -0.059799735 0.06399288 -0.0016824675 -0.015912062 -0.04344011 0.0023915998 -0.07520724 -0.012821765 0.00089485233 -0.0010975548 -0.02101284 -0.0010149212 -0.012826796 0.008614068 -0.035849594 -0.0049696914 0.063042894 0.06275153 -0.036638476 0.05696005 -0.051891975 0.07826358 -0.024974886 0.052049834 -0.03910022 -0.0039543877
안 0.13015395 -0.0053044297 0.022036739 -0.14627126 0.09880307 0.106495015 0.09446368 0.14632162 -0.2768763 0.054869443 -0.10259958 0.11764974 -0.18680815 0.007854484 0.14926508 -0.17450099 0.08678514 0.10260752 0.0041785114 -0.08742898 -0.21914564 -0.09419961 -0.16277921 -0.12815289 -0.07936719 -0.27844614 0.10300722 -0.105319716 0.08263132 -0.07614045 0.07004887 0.09294882
정말 -0.02681938 0.053095974 0.023839938 0.034970786 -0.013351592 0.03801455 -0.075846076 0.0075836093 0.10299075 -2.5999616e-05 0.0020484051 -0.016913874 0.04660504 -0.09780634 -0.039561022 0.1118783 -0.0068262387 0.01805478 0.017820366 0.060279492 0.05300613 0.054594483 0.04744235 0.07331556 0.07562204 0.098435804 -0.027428547 0.05212366 0.051286858 0.0736741 -0.07360449 -0.06289605
로 -0.046144307 0.025094707 -0.060979437 -0.012611742 0.03375879 0.038723115 -0.021457147 -0.03305363 -0.03342361 0.037897903 0.027424613 0.04616717 -0.07660974 0.05002683 0.0067572417 -0.0654668 -0.0017661952 -0.036718678 0.05702931 -0.0137589155 -0.02492659 -0.063879825 -0.04319675 -0.061389357 0.035343524 -0.04576237 -0.0312361 -0.015979253 0.03164452 0.006589969 0.033213038 -0.00033073832
음 -0.045335762 0.06625201 -0.04224907 0.06944276 0.20141228 -0.056435354 0.08122318 -0.008996497 0.06567195 -0.053680614 0.044352528 0.02358565 0.034329094 0.061797164 -0.0036176336 -0.020175686 0.0010043883 0.24178351 -0.06511659 0.059928965 0.0641382 0.05667406 0.03543427 0.033744767 -0.032697834 0.017357677 -0.010463434 0.049770854 -0.11570392 -0.031328265 0.0054973476 0.003972495
것 0.014349424 -0.03153018 0.030283207 -0.048489686 0.041669738 0.039558403 -0.042117324 -0.017989984 0.10674397 0.027744982 0.027600193 0.011940981 -0.01719958 0.0025337986 0.053614672 0.03514456 0.0121307075 -0.0472077 0.044738416 0.06544418 0.06294941 -0.003990642 0.015929729 -0.012609588 0.020625284 -0.011262305 0.019429615 -0.029321885 0.046245765 0.060093556 -0.071142145 0.053402465
아 0.027784629 0.00081903336 0.00136906 0.0065048127 -0.042112123 0.04074084 -0.035447832 -0.00066805974 -0.0006270903 -0.038212765 0.047403138 0.034273036 -0.07552644 0.03468407 0.012733767 0.026289599 0.009885445 -0.034704287 0.071324 -0.0024060612 -0.003132614 0.0074764676 -0.009376672 -0.064559594 0.002274921 0.007353085 0.009839614 -0.033380397 0.018572416 0.01621102 0.020079384 -0.05458166
네요 -0.13544007 0.0041049845 -0.003286108 0.026941927 0.10341727 -0.036149655 0.055787504 -0.030779678 0.04498 -0.03053027 0.026563482 0.054701053 0.033131905 0.11682463 -0.03871825 -0.035071332 0.008786125 0.22396114 0.02141143 -0.031806417 0.13890766 -0.029055087 0.09203127 0.05061846 -0.08971964 0.064862765 0.009059832 0.04803341 -0.10794788 0.055049777 -0.016337723 0.05756699
재밌 0.07846303 -0.1874475 0.1730489 0.30276698 0.21758147 -0.18621165 -0.12905234 -0.17091736 0.17906253 -0.18631613 0.21781272 -0.21893676 0.20986144 -0.076360255 -0.24153528 0.16514394 -0.14237373 0.12696381 -0.24063885 0.22141993 0.2975511 0.18386829 0.23792057 0.20704256 -0.19821449 0.25406697 -0.18382083 0.16164099 -0.31274968 0.102183394 -0.12695695 -0.16481501
어 0.0023297912 0.050792083 -0.044112917 -0.03277358 0.0035882876 0.024902493 -0.06025309 0.014673477 0.0039332313 0.006143639 -0.033201393 0.06274238 -0.009260077 0.00083960156 0.014729118 0.036678623 0.015152792 0.018684322 0.04604674 -0.018062796 0.008625866 -0.0021251603 0.023485038 0.012056536 -0.019147456 0.088456705 -0.0018697418 0.06120509 0.048774257 -0.028399507 -0.030374296 -0.021581275
같 0.014639535 0.02615881 0.03121297 -0.02695282 0.047601204 0.02230051 0.0568058 0.033152178 0.017180907 -0.016304042 0.0025065017 0.02705907 -0.0077941674 0.020617668 -0.018920936 0.035568014 0.03340884 0.06387042 0.0085815815 0.036607776 0.05245572 -0.019405253 0.030204765 0.016777033 -0.011516559 -0.009425976 1.6965278e-05 -0.029883627 -0.0014879561 -0.010927393 0.04034443 -0.045142494
점 -0.07818042 0.065438904 0.025747346 0.04408673 0.24389648 -0.018360313 0.022749601 0.06045259 -0.09952787 -0.030106995 -0.09804411 0.13646401 -0.110110775 0.13786565 -0.017804727 0.03970561 0.10965131 0.28795418 -0.17539364 -0.034108594 0.108712204 -0.05965386 0.10863 -0.018803036 -0.18271534 -0.037726317 0.042929336 0.043058813 -0.09579443 -0.08615132 0.0040990864 -0.054071784
지만 0.11148231 -0.04890552 0.010623052 0.12934457 -0.25460112 -0.07221961 -0.05903239 -0.011702012 0.021962404 -0.19261229 0.1035854 -0.04223576 0.025574401 -0.09205659 0.05142319 0.06137712 -0.00937942 -0.44469932 0.08047998 -0.01878656 -0.10585769 -0.020898798 -0.21200049 0.0011246454 0.09385674 -0.021581959 -0.05965706 -0.072400905 0.31094235 0.035087276 -0.056741543 0.10455651
진짜 0.044868376 -0.0008953266 0.049938563 0.048410162 -0.07783773 -0.03699894 -0.062801726 -0.013860908 0.04642457 -0.011709173 -0.011487587 -0.06389488 0.09051119 -0.06966538 -0.030731808 0.08024165 -0.025257464 -0.020681156 0.017808791 0.045242306 -0.05764413 0.06372486 -0.04050262 0.07701449 0.089426965 0.038103495 -0.033087954 0.02890328 0.10516502 0.008931815 -0.101561 0.0022743933
했 -0.017001173 0.059420105 -0.006068956 -0.047197744 0.047754977 -0.036791287 0.062405784 0.0045290943 -0.021153303 0.010779557 -0.040333636 0.025662377 0.041774742 0.044346865 0.0009307008 -0.03314413 0.03278877 0.07518266 0.04375105 0.023330096 -0.013830113 -0.03195166 0.026842427 0.011702278 -0.016236 -0.00023581227 -0.021308128 0.023323439 -0.074459516 -0.015506922 -0.027164834 0.025925603
에서 0.024305861 -0.0062787486 0.0074151247 0.03302192 0.018729411 -0.011757674 -0.009579906 -0.029907988 0.01595866 -0.036711592 -0.04027482 -0.022832077 -0.026408024 -0.02001205 0.045667928 -0.030296553 0.0010790135 -0.06759093 0.015566074 0.061728742 -0.011452481 -0.010421135 -0.03656211 0.059627015 0.039659824 0.04141107 -0.05324422 0.019689312 0.12684704 0.03804667 -0.045435756 -0.033633407
기 -0.023095906 0.0872631 -0.02202802 -0.04413814 0.05176311 -0.018679984 0.06953758 -0.017667448 0.0034782183 -0.02060226 -0.033681687 0.07218049 -0.012468613 0.031896606 -0.031158665 -0.0055478965 0.03730043 0.047493827 -0.023521572 0.019938167 0.025046643 -0.042593338 0.013395786 -0.039018907 -0.061020978 0.018191617 0.0029809922 -0.043914955 -0.033445776 -0.049801227 0.0025814427 0.011735932
네 0.00094216247 0.0071827862 -0.016538572 -0.020763543 0.08916569 0.019896496 -0.01608877 0.035834454 -0.05894602 0.020713298 0.007959325 0.04773362 -0.04409579 0.051583614 0.03499803 0.008906509 -0.007090998 0.106641404 -0.02918796 0.015008844 0.035451286 -0.029736314 0.0824112 -0.027853867 -0.073962174 -0.040985487 0.05987276 0.033658396 -0.03356208 -0.013695867 -0.0077685304 0.028379612
않 0.12845388 -0.0151020475 0.020248154 -0.04779826 -0.22453727 -0.018689405 0.07200783 -0.010771541 -0.07732513 -0.08406243 0.08545795 -0.027163923 -0.122481264 -0.11362711 0.16108432 -0.07934697 -0.032605246 -0.22896703 0.15722926 -0.0051424624 -0.14560108 -0.026782792 -0.22027665 -0.040447913 0.19834399 -0.17449829 -0.05100016 -0.14705215 0.28664944 0.12610194 -0.008882476 0.15913929
거 -0.080313556 0.06567383 -0.032268927 -0.006190455 -0.024417125 0.01593664 0.06929632 -0.06532737 0.093305096 0.06423271 -0.04251504 0.0046383287 0.04663021 0.069885716 0.041907784 -0.095090166 0.0133390725 -0.0753642 0.02725047 -0.020090856 0.08184956 0.016243175 0.047939308 -0.07370942 -0.0070946617 -0.031348966 0.030050991 -0.0171293 -0.0077824495 0.008186191 0.034853615 0.08139208
았 0.013778936 0.08582281 -0.003253277 0.007645064 -0.031836826 -0.020108236 -0.031782545 0.070354514 0.042539198 0.062324267 -0.0145500535 -0.015463014 -0.021997795 -0.021207714 -0.05705447 0.07560431 0.011943992 -0.005023909 0.10649083 -0.049067058 -0.029220631 -0.029396191 0.03932646 -0.0042189467 0.044163987 0.024406083 -0.04368963 0.0193299 0.031033017 -0.05706889 -0.016253151 0.021500595
수 0.025680985 -0.04311215 0.014594351 -0.00023223262 0.14310552 -0.023440773 -0.01903999 -0.07124481 0.034767877 -0.073755145 0.101748936 0.0099776955 0.035006642 -0.0434445 0.012140344 0.011505239 -0.028183294 0.011897295 -0.06899002 0.048166268 0.08456166 0.09580848 0.07055604 -0.02128502 -0.19027863 -0.023185078 -0.018818682 -0.038464766 -0.06323248 0.11282001 0.0002200433 -0.0010382433
되 0.0026011413 0.017427092 -0.04295132 0.024762174 0.124459736 -0.03440027 0.020754691 -0.0020902113 0.08469944 -0.048583347 0.03775771 -0.008386756 0.06250157 -0.007856929 -0.0041689533 0.053967196 -0.036710426 0.056402564 0.010941006 0.06326945 0.06849691 -0.015553534 0.056100763 0.031672075 0.034879938 0.11053208 -0.004318069 0.050146405 0.027695896 0.030693784 -0.03347339 -0.0277332
면 0.066004805 0.010583172 0.010121778 -0.022820113 -0.02705455 -0.012795773 -0.04173603 -0.0012605382 0.01199048 -0.04187277 0.046193928 0.03134477 -0.093608744 0.0063991873 -0.004583301 -0.01035775 0.0033679197 -0.05807125 0.036761966 0.06330727 -0.0424363 0.015478368 -0.0040204534 -0.051747616 -0.05529775 -0.03151772 -0.008052204 -0.033283506 -0.0021628658 0.011174556 0.007816156 0.055329323
ㅋㅋ -0.07854273 -0.027807107 -0.013620568 0.072811306 0.02347135 -0.025726795 0.057023346 -0.00824027 -0.047708414 -0.06522453 0.033488303 0.01967535 0.007878632 0.020537652 0.00415607 0.041163802 -0.006290065 0.019057663 -0.03595155 -0.01835157 0.07618051 -0.05876758 0.033108853 0.048708025 -0.035101242 0.03883998 -0.009482806 0.0063098804 -0.020083513 -0.01467088 0.06669018 0.010727347
말 0.054872543 0.017628403 0.017059762 0.014600385 -0.0036681236 0.019206662 0.006818317 -0.020253107 -0.00013168392 -0.031541154 0.053705797 0.02486412 -0.059478395 -0.028895777 0.053900417 -0.04652639 0.043205436 -0.017494544 -0.0100259 -0.021171115 -0.021782998 -0.0022985453 -0.07929549 -0.024751093 0.05335719 -0.011329623 -0.046045125 -0.04046659 0.12308369 0.0072250627 -0.05589365 0.03827194
연기 -0.0687769 0.026212795 -0.03325564 0.091801375 0.15138234 -0.028251048 -0.05704725 0.0011140598 0.056951847 -0.07580861 0.023214366 -0.055487704 0.082654156 0.0299378 -0.093274154 0.043286994 -0.024554398 0.1594117 -0.04909059 0.0015642779 0.11160197 0.052627426 0.10543616 0.076512 -0.07051291 0.09828038 0.012277892 0.0055548316 -0.1031337 0.0035652013 -0.045262273 -0.027968261
인 -0.06068503 0.047438093 -0.02336897 0.051782027 0.073476434 -0.06512023 0.042838115 -0.008890511 0.0629213 -0.073630504 -0.014647028 0.013182782 0.01679885 0.021477632 -0.070430264 0.062484678 0.023312582 0.01339269 -0.027035557 0.002292218 0.01382224 0.040353253 0.031400066 0.02334276 -0.04739361 0.09709858 0.014337831 0.040414575 -0.0059161712 -0.03950376 0.016455917 0.014204988
주 -0.16876367 -0.0028098985 -0.056448385 0.04882095 -0.099175245 -0.035866443 0.0056530577 -0.016714768 0.017534783 0.039469797 -0.04426257 -0.0071303444 0.06777141 0.073696345 -0.072339416 0.04401098 -0.028852118 -0.08655357 0.04069127 -0.044044595 0.060139824 0.019083643 0.027907694 0.032280467 -0.03744478 0.08233749 -0.012040282 -0.040951807 -0.09113556 -0.0059983665 0.04419609 0.0047807624
내 -0.030896362 0.055738103 0.018640004 0.006691341 0.07023948 0.032649558 0.008887942 0.05328538 0.0084829 -0.027674075 -0.050943557 0.0024115387 0.029619772 0.05551286 -0.01981688 0.069189794 -0.030648088 -0.0023566072 -0.024302565 0.0121756485 -0.05988447 0.009240751 -0.04806372 0.016557299 -0.030547798 0.026334763 0.0034399342 0.033180576 0.037188787 -0.00114472 0.02709098 0.031502523
최고 0.22070065 -0.253212 0.29615623 0.281088 0.1691116 -0.24005711 -0.4158943 -0.06485193 0.25835937 -0.28084853 0.24666388 -0.30769598 0.19847678 -0.25955093 -0.27754834 0.36050275 -0.22759478 0.10509808 -0.24124688 0.3118672 0.117019475 0.246149 0.2188082 0.31129614 -0.1672364 0.2955147 -0.35760286 0.35840002 -0.09170546 0.20294496 -0.28530243 -0.32393405
~ -0.011732175 -0.019017154 -0.023448158 0.0024938004 0.11206969 0.026332278 0.040227175 -0.039148763 0.060316067 -0.009384829 -0.015083361 -0.01883294 0.044802688 -0.026671393 0.010314154 0.072141625 -0.011080532 0.12499532 -0.07184847 0.03553952 -0.002069157 0.013436913 0.018131275 0.0577951 -0.018569473 0.033318434 0.026472196 0.029702492 -0.05820131 0.05173415 -0.02251069 0.009776055
평점 -0.045696974 -0.03482594 -0.0053694136 0.07829951 -0.016249737 -0.072267346 0.07381906 -0.07785121 -0.040816657 0.010382585 0.068225324 0.03638641 0.03531244 -0.023323203 -0.02161634 0.030666756 -0.061042223 -0.13973951 -0.038061187 0.046322893 0.13153328 -0.017277313 0.0577393 0.052058235 -0.039002325 0.020352626 -0.04166786 0.0021521123 -0.15703602 0.06253853 0.023715341 -0.029013136
이런 0.028429134 0.03716719 -0.047577053 -0.045976095 0.036753133 0.031722426 -0.011190004 0.0376023 0.08876804 0.02574117 0.030420482 0.007951257 0.0038091093 -0.056617755 -0.037211727 -0.0021079588 -0.00021808645 -0.013711493 0.028925374 -0.04966821 0.01812483 -0.0025832723 0.0004122815 0.018134175 0.024076024 0.07758027 0.05950917 0.011429817 0.07892282 -0.058765274 -0.004364419 0.0027211383
던 0.03379992 -0.022821367 0.017228752 0.03635542 -0.032356255 0.019365886 -0.031379126 -0.037723284 0.036383692 0.052864987 0.029018607 -0.023242982 0.043249678 -0.033943478 -0.055859823 -0.014328036 -0.04256469 -0.07586193 0.009685818 0.015318229 -0.022152316 0.027507763 0.018931568 0.05014344 -0.02981641 0.0056559206 0.0075084423 0.08657391 0.0273858 0.0044160727 -0.056709718 -0.06269127
어요 -0.029521175 -0.045465842 0.038823057 0.016408918 0.20985849 -0.046528015 0.004086002 -0.06882638 0.085836984 -0.018046526 0.008098236 -0.018400885 0.06694927 0.16157706 -0.075984545 0.06790835 0.0057375566 0.24039257 -0.17676601 0.062411383 0.15092257 0.02987818 0.1322573 0.0480425 -0.18095934 0.01683275 0.026075685 0.030775895 -0.1629374 0.05497007 -0.016937392 -0.00047965068
할 0.071748056 -0.011515333 0.009060283 0.038460273 -0.07312827 -0.054410037 -0.01037776 -0.046523105 0.026574226 -0.023641856 0.017248632 0.014833925 -0.039540265 0.044862367 -0.04349748 0.030094681 0.032130957 -0.029793806 0.022958834 0.018139444 -0.008527294 0.003248143 -0.055974744 -0.01810881 0.022976806 0.030404963 0.029772725 0.0054712184 0.042176984 -0.026414743 -0.005396369 0.00025222602
왜 0.08291965 -0.06253186 0.03363732 -0.07221351 0.105317876 -0.0073975385 0.06793196 0.090038985 -0.18982595 -0.007306988 -0.0008843881 0.06490827 -0.107560284 0.02251313 0.08082795 -0.051414445 0.07289779 0.16698141 -0.08110103 -0.07213971 -0.044422016 -0.028521383 -0.00043572646 -0.096393645 -0.14322354 -0.09014717 0.061678443 -0.027268585 -0.031673074 -0.020582495 0.03912615 -0.0054858434
겠 -0.057755426 0.11151768 -0.11874128 -0.072159484 -0.0507071 0.06517885 0.07139637 0.08777307 0.031251576 0.07307914 -0.042979922 -0.0053922804 -0.02695205 0.052604824 0.009911677 -0.07054071 0.118766166 -0.032135747 0.074294634 -0.11820336 -0.040109374 -0.035065778 -0.03398285 -0.0942668 0.049571022 -0.044334177 0.10197795 -0.039128825 0.06801015 -0.05480734 0.028209526 0.102888554
1 0.0038366897 0.032746177 -0.07796051 -0.120450884 -0.094717056 0.119718805 0.034574717 0.083944105 -0.23276992 0.03079481 -0.09318248 0.15018722 -0.15466866 0.0676197 0.1476778 -0.12715319 0.033328652 -0.013462409 0.048995886 -0.1121106 -0.16089274 -0.08989882 -0.2069331 -0.114010386 0.010895053 -0.18127152 0.06560471 -0.13676348 0.023888681 -0.09330606 0.0783378 0.12807834
스토리 -0.006907631 0.0066866693 -0.08499467 -0.09552439 0.027165584 0.068443306 0.038933113 -0.0017470733 0.006827729 0.025083143 -0.018668732 0.049648166 -0.06859082 0.020837514 0.0725953 -0.014352416 0.042504687 0.10407835 0.043508627 -0.013080915 -0.055224724 -0.02901158 -0.03279643 -0.0024860133 0.06383167 -0.05047821 -0.0026047141 -0.04391663 0.075594336 0.013263501 0.03910133 0.012261311
해 0.034444384 -0.03880955 0.008923441 -0.02406145 -0.0025369816 -0.052480064 0.023000324 -0.025858816 -0.0041172146 -0.036830932 0.0667672 -0.021504499 -0.023678588 0.03766754 0.032223042 0.009908779 -0.020466821 0.014880038 -0.034938708 0.014980621 0.046461683 -0.0023978823 0.09188265 0.006038257 -0.06979411 -0.0075760586 0.029530903 -0.024639528 -0.04631619 0.04405907 -0.035934817 -0.028639091
습니다 -0.031069499 0.012805021 0.016990872 0.034359403 0.1662284 0.0010540219 -0.023178564 -0.062427804 0.041410845 -0.06417216 0.031016702 0.0055555585 0.068643294 -0.008415166 -0.06496174 0.055224847 -0.070794806 0.1548437 -0.08859493 0.027344177 0.16033703 0.021273248 0.11799792 0.034223888 -0.15550296 0.12893575 -0.020398457 0.09758893 -0.05691781 0.08406809 -0.024082365 -0.05673195
ㅋㅋㅋ -0.06135707 -0.020007921 0.01574373 -0.02630169 0.05374036 0.026103387 0.010128833 -0.07278116 -0.023002569 -0.03481081 0.046807583 0.053228896 -0.014053204 0.07955566 -0.023739697 -0.0030283656 0.035781864 -0.048780136 -0.014677489 0.044103898 0.1556864 0.006848796 0.043568302 0.014282651 -0.0826248 0.010654485 -0.023099506 0.013739019 -0.0695781 -0.0057715075 0.07382438 0.044486113
... -0.01641519 -1.0338844e-05 -0.034709644 -0.0063435645 0.083170384 0.016254976 0.0061406516 -0.017938288 0.046392694 0.023666628 -0.029533714 0.030984381 0.015382116 0.02730057 -0.030682188 0.05516241 -0.0190436 0.023167137 0.035514906 0.0021312423 -0.024949616 -0.024658525 -0.002903816 0.008119744 0.091651365 0.014268223 -0.013408751 0.020286081 0.076156996 -0.017808117 -0.039870538 -0.02569479
드라마 -0.004263979 -0.018814504 -0.005184236 0.0333748 0.23397733 -0.08726918 0.088902 -0.0908014 -0.006286205 -0.08724206 0.04063318 0.055368792 0.043711163 0.1591663 -0.051995255 0.027489021 0.073380485 0.3003119 -0.079378426 0.032479852 0.097806565 -0.033332232 0.09807799 0.009308144 -0.09874137 -0.051398925 -0.0116279265 -0.010243776 -0.17076464 0.0015867767 0.03710983 -0.012549049
생각 0.0597706 -0.020683203 0.101925045 0.0729998 0.12584755 -0.047558986 -0.08819978 0.044237405 -0.012760284 -0.1007339 0.022785675 -0.055966344 -0.0424671 -0.12169742 -0.071506694 0.07140543 0.010004025 0.07031157 -0.09576351 0.013750053 0.025730839 -0.009863551 -0.027077787 0.043617718 -0.12508835 -0.011923908 -0.056672804 0.057429764 -0.046593215 0.02092766 -0.09158837 -0.08159772
아니 0.04350928 -0.04540111 -0.025988637 -0.074123874 -0.2754305 0.08243018 0.001267889 0.035909284 -0.081813514 0.05197962 -0.055291656 -0.009630881 -0.09776286 -0.0028039862 0.11288688 -0.07359727 0.045186885 -0.1642363 0.12824105 -0.095524155 -0.16800816 -0.026242346 -0.21011268 -0.11620718 0.16317365 -0.1568187 0.08894622 -0.13834262 0.18830532 -0.07474436 0.08590816 0.15919386
더 0.056063052 0.003983716 0.03141013 -0.0142052565 0.14540318 0.035950102 0.026800195 -0.015726557 -0.07961822 0.04460754 0.028154787 0.0461115 -0.08752814 -0.021814287 0.033572994 -0.05645937 0.06505864 0.028780084 0.0037428914 0.027671825 0.008262013 -0.038630165 0.0126012 -0.049997725 -0.10492821 -0.02159804 0.03143355 -0.05035147 -0.11122125 0.07761793 0.05464448 0.029666979
그 0.116282396 -0.012828314 -0.0057271076 0.054240674 0.08313551 -0.020867633 -0.09218178 -0.009074122 0.05823092 -0.06350442 0.0097809285 -0.084636755 0.042711522 -0.10384922 -0.03110535 0.07037115 0.0006516594 0.009494758 0.02983405 0.05682026 -0.061563063 0.08046508 -0.042213228 0.072741464 -0.031569753 0.0413209 -0.081885956 0.08335704 0.097646825 0.03703771 -0.024390293 -0.03418507
싶 -0.077829495 0.015999202 -0.028414242 0.024580613 0.27722123 -0.02944387 0.09393735 -0.055358987 0.054510575 0.05241127 0.013888805 0.022074375 -0.017031442 0.06832961 0.0013883504 -0.010715754 0.029256865 0.22317061 -0.048855532 0.06805443 0.10238944 0.040306166 0.16564518 0.03772877 -0.21205081 0.049734384 0.079596214 -0.049086705 -0.15496649 -0.013974378 0.030516293 0.028920142
사람 0.008538454 -0.11947169 0.08387361 -0.00720528 -0.101524666 0.025341896 0.011419895 0.0008526036 -0.08963986 -0.07198794 0.032327116 -0.0750524 0.01297052 -0.044266757 0.07342446 -0.016789937 -0.011577571 -0.13727492 -0.025713898 -0.0017205396 -0.02591115 0.026736123 -0.0698595 -0.04748688 -0.022161102 -0.13540344 -0.070458926 -0.05930405 -0.04255615 -0.026655236 -0.0149564585 0.033531543
듯 0.0046120463 0.031018995 0.038728204 0.019286452 0.049630318 0.060923684 -0.106771804 -0.053606782 0.06103011 0.03502347 -0.015458916 0.0029430082 -0.056030262 -0.055143587 0.038322918 0.02042927 0.006713152 0.00014807576 0.076642185 0.0675512 0.09546074 0.013957651 0.067294225 0.052101173 0.024368063 0.042867832 -0.022253206 0.017454222 0.048847623 0.07917312 -0.054168377 0.014335065
때 0.0593258 -0.026223982 0.054174904 0.030109093 0.08424394 -0.03525395 -0.053093445 0.012076234 0.03202935 -0.08623143 0.0042303093 -0.008948525 0.042271607 -0.014805385 -0.060638033 0.043753006 -0.017562408 0.05588977 -0.04962011 0.103358485 0.06820968 0.07018699 -0.014570767 0.030657949 0.0048442218 0.11067229 -0.023236597 0.06445229 0.0062396573 0.07307949 -0.07815837 -0.053996816
감동 0.035393264 -0.10592692 0.10365982 0.20041038 0.031251203 -0.121589534 -0.04085348 -0.25294495 0.22004168 -0.16325314 0.1450104 -0.16283001 0.28334558 -0.075312674 -0.20241639 0.21486636 -0.17163517 0.04295135 -0.07588239 0.17532426 0.14643207 0.11851331 0.06552543 0.19804199 0.047608502 0.1598854 -0.193643 0.19478141 -0.046862893 0.11680054 -0.17567673 -0.17060207
함 0.0005418974 0.00014707565 0.0037931278 0.023524836 0.02837748 -0.017946674 0.03422775 -0.05062021 0.08804044 0.007282978 0.02791693 0.017351206 0.05850522 0.055874925 0.037750483 -0.020066055 -0.023359863 0.03866749 -0.004940679 -0.061243005 -0.0061937515 0.022643361 -0.013153519 -0.027336223 0.05426365 -0.04616294 -0.026581956 0.0048392112 -0.016158914 -0.009520498 0.020241674 -0.0076517495
배우 -0.034319554 -0.010743379 -0.0074985903 -0.017624022 -0.009668119 0.050268706 0.028388528 -0.019480858 0.015731549 0.044635992 0.021017862 0.0015834766 -0.042417277 -0.016466893 0.03600847 0.03668646 -0.048644442 -0.068728775 0.01717595 0.043131977 0.01648711 0.03334879 0.040261857 0.062563896 -0.005585264 0.051194154 -0.0013004073 0.0031435674 -0.016254872 -0.005465488 -0.019773392 0.026196798
본 0.01791439 -0.0132744275 0.01245888 0.09042666 -0.077876054 -0.111641854 0.024795795 -0.0061640805 0.024438133 -0.112714134 0.02439008 -0.042430606 0.072025955 -0.017227212 -0.07078048 0.057736017 -0.011020779 0.026965765 -0.04856821 0.07350083 -0.006943476 0.036091313 -0.050485257 0.050162744 0.02362571 0.058739547 -0.029198237 -0.016715292 0.021100674 0.022781696 -0.019416517 -0.01683269
까지 -0.081241354 -0.023784542 0.0066995467 0.001887397 -0.02505984 -0.0015929278 0.04354204 -0.08245605 0.1260248 0.040476337 0.0025239142 -0.029152114 0.006494524 0.08120312 -0.027281053 0.019350993 -0.0016981189 -0.015108138 0.041333724 0.042284194 0.10192002 0.061352115 0.023138221 0.015631516 0.011510037 0.003802978 0.006933194 0.021788575 -0.071642436 0.012995636 0.036641613 0.071853496
뭐 -0.12088341 0.04642413 -0.103545785 -0.08895557 0.08039758 0.011704046 0.16286363 0.107052386 -0.08614176 0.02975261 -0.108488575 0.13902426 -0.06246655 0.13488114 0.070201956 -0.023020953 0.1183788 0.043919027 0.07538067 -0.07472343 -0.061133444 -0.08962378 -0.16169846 -0.09211707 0.0049943584 -0.0781791 0.10514206 -0.13055302 0.06935544 -0.073800944 0.09533681 0.06279372
알 -0.010225511 0.079892494 -0.00229858 -0.03261686 -0.079767644 0.056942545 -0.008479915 0.003973426 0.001636571 0.07312963 -0.0018744643 0.029526003 -0.0013050197 -0.053077597 -0.042081214 0.006856416 0.052347045 -0.076575324 0.01196175 -0.055631533 -0.03608426 -0.06670435 -0.025638673 -0.026128141 0.028604962 0.04902251 0.0063752723 -0.031515677 0.07692897 -0.063993305 0.025250573 0.019710248
만들 -0.11208756 0.16444169 -0.067754 -0.026011726 0.11073875 0.038402732 0.013197901 0.012341619 0.073742114 0.008110187 0.0153495 -0.012440313 0.030845236 0.09231913 -0.0716474 0.00036802242 0.044449516 0.082121916 0.09230509 0.053650428 0.033554256 0.0018422765 0.09077658 0.021793168 0.091082245 0.07453465 0.050211277 -0.012120868 0.05470198 0.0017476457 -0.0032268148 0.062859796
내용 -0.10354786 0.09020167 -0.110593654 -0.018822901 0.015958032 0.08833619 -5.451555e-06 -0.0695692 0.08604463 0.08201733 0.016197547 0.026114535 0.08686115 0.10042091 0.0054093306 -0.035866395 0.03946859 0.041395232 0.04739486 -0.044581547 0.06635499 -0.017558802 -0.0044704913 -0.040560342 0.09609655 0.033677954 0.09633101 -0.0701474 0.0531079 -0.01696456 0.039283764 0.08308165
볼 0.011242245 -0.0773479 0.054420654 0.10018544 0.08632403 -0.07511194 -0.10243385 -0.13556953 0.13031955 -0.08351843 0.13117886 -0.12788494 0.070350505 0.019937374 -0.1175117 0.040603425 -0.10421014 -0.04838535 -0.061292216 0.12426318 0.15964518 0.055036176 0.12684895 0.050070297 -0.08207199 0.101276994 -0.07747578 0.026753388 -0.10572001 0.083553426 -0.10524323 0.009899058
감독 -0.13279532 0.1158941 -0.07666368 -0.10679781 0.00084680377 0.089018434 0.13146065 0.012803203 0.051228147 0.10938464 -0.094434954 0.07950112 -0.003464904 0.12529849 0.0018989812 -0.077422224 0.11364773 0.09392669 0.042118203 -0.064832985 0.04456981 -0.044622347 0.0143589955 -0.014941333 0.03276727 0.0014459562 0.06727005 -0.07963916 -0.08681166 -0.09767173 0.08616738 0.1350881
보다 0.10615022 -0.04545423 0.035408285 0.03110826 -0.15370597 -0.05242408 0.001617854 -0.0019655514 0.06079011 0.008049418 -0.041892253 0.0073923566 -0.025297403 -0.035661884 -0.019081524 0.06597259 -0.068810575 -0.13545714 0.058231276 -0.049043972 -0.13457605 -0.059449207 -0.06786975 -0.00052259734 0.09514841 0.026262136 -0.019661149 -0.0038012294 0.1561562 0.013804949 -0.10658921 -0.069380544
라 0.023203257 -0.026974626 0.002160717 0.046121486 -0.015952155 0.002692654 -0.010934823 0.07651034 0.027706303 -0.015688667 0.0134394895 0.047612514 -0.060702678 -0.01716023 -0.031303898 0.024700105 0.030773213 -0.04514684 -0.014564535 0.03367284 -0.005300385 0.046386268 0.020464193 -0.033103127 -0.050146416 -0.0059324526 -0.03871664 -0.03286459 0.058049377 -0.022647228 -0.0866121 -0.009299399
그냥 -0.12036175 0.07114304 -0.13883008 -0.08115153 -0.10177279 0.12704101 0.12819958 0.05489383 5.986332e-05 0.09954064 -0.11134933 0.0048249667 -0.017698009 0.096376315 -0.030658549 -0.01886357 0.038408324 -0.003937184 0.069893666 -0.06754333 0.03139354 -0.088153854 -0.033243958 -0.0027912091 0.13189435 0.010898008 0.09114812 -0.0056787124 0.097228386 -0.12712777 0.019645711 0.02953635
재미 -0.1525859 0.070961654 -0.12003995 0.11558966 -0.03918735 -0.035694703 -0.06581331 0.009649852 0.23623596 -0.016291093 0.022033002 -0.05075518 0.12818326 -0.001003321 -0.16527078 0.11997188 0.013027136 0.10339029 0.072192125 0.039486986 0.035217743 0.0062395413 0.088312685 0.09018173 0.16071638 0.16182745 -0.002183089 0.06819145 0.042666268 -0.0011497336 -0.041811883 -0.08259814
시간 0.012133678 0.038579043 -0.055067398 -0.024889685 0.08896622 0.022764945 0.010868044 0.009438144 -0.015509808 0.09509103 -0.0813307 0.12643129 -0.051371977 0.09128722 0.07057669 -0.058038123 0.054888315 0.07237901 0.04548818 -0.06755242 -0.064201765 -0.049404558 -0.059573714 -0.094449155 0.052913103 -0.034460932 0.10297197 -0.033307537 0.10827427 -0.0731346 0.013065419 0.015308934
지루 -0.03436595 0.15397002 -0.12111275 -0.28718314 -0.0124368165 0.17663267 0.15849485 0.2787493 -0.33229828 0.075707614 -0.25318697 0.34845638 -0.1992281 0.2089767 0.27398956 -0.18985766 0.18905365 0.22114587 0.05579187 -0.23775625 -0.40519887 -0.22321242 -0.3392547 -0.216617 0.2296512 -0.30026823 0.21972793 -0.27411675 0.29435137 -0.26518902 0.14198753 0.1521814
중 0.014951724 -0.070449635 0.04774504 0.09823937 0.008964139 -0.036213 -0.08953766 -0.07455339 0.109355666 -0.073338516 0.06676399 -0.10607763 0.07507653 -0.040920895 -0.0641796 0.06717088 -0.0733517 0.043739155 -0.012867687 0.03230089 0.059657067 0.110119805 0.019405684 0.14890222 0.046932343 0.07457601 -0.10757926 0.04036022 -0.01256105 0.028972756 -0.06069075 -0.020300156
재미있 0.121272795 -0.08129738 0.16431296 0.18214814 0.11777772 -0.110757165 -0.28461152 -0.018659558 0.22862615 -0.13162349 0.16734365 -0.17604305 0.123459496 -0.18758738 -0.156152 0.22889073 -0.26326692 0.047218308 -0.076365314 0.20180185 0.16306908 0.18015677 0.13922083 0.26030135 -0.0196877 0.29706082 -0.1293983 0.262763 0.016845318 0.18048483 -0.24468383 -0.21266766
년 0.050140657 -0.0721592 0.060620952 -0.0002616173 0.042270698 -0.0039367573 -0.04060412 -0.09806245 0.04073818 -0.04236178 0.024829708 -0.006532242 0.059525564 -0.045340292 -0.031948946 -0.046547756 -0.024404325 0.0143664 -0.06668047 0.012628328 0.123003565 0.0060837753 0.12927285 -0.008425417 -0.10876133 0.044410184 0.010478079 0.06889876 -0.046571963 0.11776124 -0.022237955 -0.007947755
10 0.07214207 -0.15803282 0.09799657 0.047020003 0.0469991 -0.022509646 -0.28827697 -0.15097931 0.26150233 -0.15139164 0.11874474 -0.29312426 0.2548373 -0.33179545 -0.102295816 0.18486527 -0.26783702 -0.23934713 -0.056451637 0.20563114 0.17170228 0.21488063 0.18964446 0.25147042 0.0005951097 0.25952435 -0.18802887 0.30178666 -0.1460344 0.24043036 -0.13919984 -0.21820264
였 0.026954262 -0.068941295 0.01350633 0.051000167 0.07957146 -0.06436628 0.017064903 -0.069684915 0.007992575 -0.012658495 0.041940797 -0.00018283431 0.049707815 -0.036069445 -0.07986269 -0.005924941 -0.024944006 0.016694885 -0.03484715 0.039233346 0.07066617 0.06068644 0.14338934 0.028562179 -0.15388471 0.011367365 0.010289596 0.016004454 -0.16389425 0.055448826 -0.05748746 -0.036452457
잼 -0.04369326 0.10779443 0.06698369 0.11768797 0.21471739 -0.13481486 -0.052397847 -0.060931683 0.23204584 -0.06410535 0.10763888 -0.06641275 0.1886367 0.07840877 -0.16374947 0.2127173 -0.05135503 0.32074288 -0.06497328 0.11713223 0.25209796 0.09833271 0.23558372 0.20077626 0.010092903 0.20501079 -0.013781627 0.13008009 -0.09673552 0.014286584 -0.19433552 -0.06822275
사랑 0.12622993 -0.10636303 0.09155954 0.03594008 0.024578054 -0.063724324 -0.21018216 -0.124370195 0.20824918 -0.031656064 0.043987483 -0.1410598 0.056430396 -0.20433076 -0.08105894 0.1015601 -0.22881131 -0.08730325 -0.032873966 0.16396965 0.080922715 0.117730275 0.07133453 0.13389987 -0.099500194 0.17125608 -0.16026402 0.1657486 -0.025482781 0.13083862 -0.08386909 -0.098805
못 0.039918274 0.010939642 -0.06426238 -0.11877469 -0.15524586 0.07759245 0.12915988 0.092357464 -0.13359976 0.10019631 -0.020478984 0.068655714 -0.10399598 -0.009194357 0.120493054 -0.09632629 0.03491674 -0.026294798 0.07794366 -0.09328495 -0.16551206 -0.06837115 -0.18094358 -0.17580442 0.04925388 -0.1857634 0.041854177 -0.12701857 0.06743452 -0.10082246 0.13718843 0.04853313
냐 -0.03024339 0.1294213 -0.09881678 -0.057461586 -0.065993495 0.0745275 0.016432228 0.12632853 -0.1244583 0.08620141 -0.083712734 0.094011545 -0.091338985 0.061532833 0.08883924 -0.057856273 0.117337726 0.043569557 0.16044253 -0.12503935 -0.17214848 -0.16272435 -0.11698925 -0.050857224 0.16716662 0.0010169084 0.04057567 -0.014867687 0.17032278 -0.13491718 0.0807143 0.010424509
재미없 -0.2773457 0.1654598 -0.25360993 -0.36500365 -0.027080724 0.31084132 0.31843442 0.1914719 -0.45414713 0.31514615 -0.28472975 0.3920799 -0.2998982 0.23681074 0.37063468 -0.36696222 0.31020448 0.31018594 0.09875727 -0.27935886 -0.26090217 -0.3452343 -0.2123109 -0.3957887 0.17450535 -0.41732514 0.28511113 -0.31601572 0.12418398 -0.2299642 0.3749786 0.34097734
쓰레기 -0.19777152 0.18078543 -0.1679793 -0.311728 0.09043768 0.29653713 0.24896835 0.254239 -0.3694889 0.2631484 -0.21461399 0.32837918 -0.32761112 0.2349088 0.22512427 -0.2958506 0.21995972 0.24199226 0.21460856 -0.18335491 -0.22520144 -0.22047639 -0.19266987 -0.25389007 0.16111726 -0.35152224 0.28311706 -0.26346353 0.2726406 -0.1718687 0.2566843 0.16644657
서 -0.040343724 0.03550965 -0.060165845 0.0013720474 -0.04015422 0.022291578 -0.007245501 -0.08591233 -0.012375755 -0.009031153 0.020947892 0.0026658843 0.042980462 -0.01516021 -0.046662107 -0.040319074 -0.023813825 -0.088205785 -0.034275673 0.025039408 0.0127199935 0.020612512 -0.0110145975 -0.025784278 0.023152124 -0.062166195 -0.036267377 -0.023909686 -0.04729102 0.011054456 0.030803569 0.006024917
2 0.11363632 0.0152045665 0.020374415 -0.004492785 -0.006106018 -0.0041715745 -0.04831885 0.060947463 -0.1724572 -0.020736478 -0.010935498 0.06468484 -0.15032455 -0.014904721 0.058386736 -0.07090089 0.07294642 0.06654426 0.062305596 0.007094995 -0.1423572 -0.008248854 -0.10205281 -0.09707905 0.10266536 -0.093746945 0.04217909 -0.05701107 0.18283997 -0.039464835 0.037612326 0.019130724
라고 0.04837967 0.09346321 -0.05024944 -0.106638096 -0.089540854 0.00051140017 0.02979204 -0.006984752 -0.045692384 0.06608102 -0.03803181 0.07018467 -0.0020184629 0.06743951 0.05894696 -0.019201286 0.07389547 -0.09449632 0.074076444 -0.0934952 -0.08662231 -0.07661978 -0.09932234 -0.040568117 0.071552776 -0.07644927 0.06711761 -0.06034642 0.129862 -0.11703373 0.057891656 0.044486877
야 0.03906708 0.027287303 -0.0034415647 -0.04739728 0.026185485 0.04834244 0.03953869 -0.021870054 0.062042054 0.0072556166 -0.06374176 -0.018446166 0.016100373 0.035294164 0.03581434 -0.067551814 -0.020556167 0.025843205 0.023999723 -0.046413675 0.02189029 0.024782032 0.05550172 -0.032935835 0.052347027 0.018787026 0.027618378 -0.04727671 0.030853715 0.05191457 0.045311313 0.013617086
니 0.03571594 0.00060760794 0.013775174 0.013872518 0.0039306246 0.007092254 -0.043933313 0.055062264 -0.0020116754 0.043027952 -0.031186888 -0.026353324 0.0312774 -0.05169993 -0.06784674 -0.0016891796 0.0076141586 0.04249708 -0.025099356 -0.014907864 -0.05528121 -0.022528194 0.021751048 0.0027169827 0.061943628 0.038456284 0.033417575 -0.0109791085 -0.003581118 -0.05657761 -0.039352976 -0.0650169
면서 0.047372606 -0.07971133 0.0071132425 0.025776513 0.036647264 -0.059627846 0.0041701016 -0.118220836 0.054594155 -0.04737899 0.10641595 -0.012504225 0.03868445 -0.011277694 0.009989299 -0.033431977 -0.0093644485 0.022073638 -0.015433566 0.06734533 0.06331651 -0.0046173697 -0.019880697 -0.0031175239 -0.033334076 -0.039748743 -0.0751356 0.044275723 -0.070024766 0.0617772 -0.043130737 -0.022803985
번 0.049822558 -0.028698873 0.024878863 0.027068224 0.0025746815 -0.06436766 -0.119284004 -0.065654255 0.1873978 0.0070386506 0.053880755 -0.0808075 0.040088452 -0.041922837 -0.0888995 -0.011052529 -0.13062543 -0.11152612 -0.02107712 0.034480635 0.10192962 0.10045237 0.1198669 0.045783658 -0.03364273 0.12952018 -0.029972788 0.023177385 0.014408227 0.059420604 -0.010565145 0.011286472
다시 0.06269537 -0.04593621 0.12732276 0.16509683 0.051877897 -0.06406704 -0.10496453 -0.0059935087 0.07480422 -0.089995496 0.03815365 -0.044264108 0.025928011 -0.15255335 -0.10482144 0.14098214 -0.12692897 0.061929315 -0.0065458883 0.07607825 0.002772058 0.06275295 0.009288594 0.03516064 -0.06649245 0.14952172 -0.079891264 0.061285026 0.048600312 0.034283996 -0.12588945 -0.06786121
나오 -0.04953164 -0.006511413 -0.060429942 0.045258503 -0.012686735 0.031358324 0.08313816 -0.021837594 0.07025843 -0.031481255 -0.021141533 -0.038239025 0.043784205 0.057380486 -0.053747013 -0.059519365 -0.006647734 0.044677436 0.0461014 0.021485232 0.022904564 0.009037766 -0.0523879 0.018420173 -0.01067956 -0.005673491 -0.034612194 -0.06769584 0.012222828 -0.010413916 0.05478095 0.056798138
작품 0.129197 0.007218835 0.047772855 0.0073994086 0.045686815 -0.077988505 -0.049989164 -0.03771772 0.03113708 -0.056052297 0.1344201 -0.009061324 0.04258875 -0.0054812897 -0.020505441 0.032797206 -0.08445044 -0.022430714 0.0023914583 0.08804297 0.021235662 0.07070144 0.0133404685 0.009727472 -0.021311816 0.032741457 -0.025568224 0.040729277 0.021120163 0.078134246 -0.078862 -0.026108759
이거 -0.032516446 0.009033033 -0.04178106 0.021732286 0.0686484 -0.0506211 -0.02361751 -0.065116085 0.05349777 -0.007281969 0.07231109 -0.018707782 0.015250828 0.0055637853 -0.022474231 -0.01940613 -0.057498325 0.08149026 0.007174435 -0.019546043 0.07540976 0.004890263 0.034937583 -0.018744705 -0.05661165 -0.03276755 0.012348547 0.021725466 0.0042569027 0.016388971 0.012716685 -0.0141268065
하나 0.048783757 0.03595866 0.028526118 0.037929464 -0.042991865 -0.003255244 0.066277646 -0.008275505 -0.030101757 -0.042278983 0.02631225 0.098026246 -0.029125309 -0.052529432 0.0449152 -0.013129068 -0.05150726 -0.047077905 0.032902516 -0.011062889 -0.07615468 -0.022265084 -0.024504332 -0.05620014 0.06899552 0.025135938 0.0151839135 -0.048632022 0.05905528 0.055985264 -0.04853309 -0.029375296
줄 0.022120709 0.014150966 0.017218292 -0.052159168 -0.031003838 0.039176982 0.03627784 0.018056562 0.054272972 -0.007554516 0.010765124 0.0048999554 -0.019784218 -0.047598436 0.04048972 -0.012276874 0.0056729424 -0.07003509 0.045271438 0.0073414613 -0.008526443 0.0028003373 -0.04404638 0.006760096 -0.0017421244 -0.032160595 0.037747175 -0.09932072 0.09258393 0.011950441 -0.025628533 0.06473508
해서 -0.031609163 -0.0008717474 -0.06656405 0.016306799 -0.13852686 -0.039157066 -0.007042061 -0.070515476 -0.0038201665 0.020259056 0.012570796 0.00432399 0.03401324 -0.054947514 -0.024445593 -0.009218319 -0.013233407 -0.02921153 -0.035971344 0.038839523 0.03590346 -0.007760921 -0.034380667 0.037142027 0.06395943 -1.2885546e-05 0.01505702 0.041003432 -0.001131155 0.061426535 0.047051366 0.009910284
개 0.015602865 -0.0028012027 -0.020655667 0.019189598 0.024707476 -0.012839024 0.07255734 0.01745779 -0.007835308 -0.03432864 0.053354505 0.010564306 -0.022873564 0.043372966 0.022142539 -0.037130997 0.052563276 0.098456785 -0.0060390346 0.04775739 0.041089732 -0.03595634 0.0021873896 0.018755535 -0.030163703 -0.05827959 -0.036962524 -0.00041871038 -0.01729395 0.02424623 -0.028349457 0.043419033
남 -0.12766655 0.13254523 -0.13069159 0.002332469 0.01736143 0.042510126 -0.021908442 -0.012767018 0.11570909 0.031628855 -0.012704171 -0.009322558 0.0127435895 0.084307574 -0.061955065 0.0407063 -0.011253149 0.11947065 0.098619096 0.015803881 0.047631208 -0.03327417 0.023285221 -0.008198824 0.08657662 0.090875275 0.026306817 -0.020963732 0.08598181 -0.08751356 0.0063929544 0.045119237
정도 0.11397758 -0.012619057 0.048622645 -0.013918193 0.044470645 -0.0045445217 -0.09544962 0.07042024 -0.08468635 0.04404536 0.0034769804 0.025160052 -0.07111195 -0.046001833 0.0886358 -0.028644912 0.03694681 -0.011642024 0.016934844 -0.06081286 -0.11884727 -0.035517883 -0.110307835 -0.06496934 0.009167293 0.017541897 -0.034477443 -0.009721244 0.17382163 -0.03829661 0.02746217 0.06294883
마지막 0.089942664 -0.13551769 0.099342704 0.09823578 0.059832253 -0.08985883 -0.10832327 -0.003260125 -0.051800635 -0.05315671 0.08923457 -0.040032335 -0.0590441 -0.088004395 -0.011295147 -0.0035604096 -0.028523283 0.036652718 -0.13659395 0.050707098 0.013417948 0.07477055 0.03200874 -0.01224208 -0.20874144 0.03459933 -0.04148297 0.05820133 -0.032859474 0.062149268 -0.013132568 -0.022628227
끝 0.04743873 0.094928294 0.01641906 -0.057506714 0.17032799 0.06708905 0.102522455 0.08695299 -0.01346452 0.07785167 0.013111456 0.11759947 -0.09996784 0.08040056 0.02951135 -0.057438653 0.06249212 0.058190834 -0.07458676 0.018053768 0.019426543 -0.067186296 -0.012839001 -0.04588932 -0.015923688 -0.0748455 0.06910888 -0.06704425 0.020267034 0.00030928256 0.0055932216 0.03074638
이건 -0.12156317 0.21792525 -0.1247653 0.008332044 -0.13630043 0.030383175 0.037994575 0.15292078 0.105416276 0.03567909 -0.05620481 -0.03414712 0.036211915 0.07758239 -0.059955403 0.11892178 -0.011247222 -0.0434847 0.24081534 -0.046316247 -0.17130403 -0.026678216 -0.08818034 0.061533295 0.28434426 0.13457653 0.03261515 -0.035769362 0.35669592 -0.12311457 -0.06124874 -0.0094281705
액션 0.082256444 0.004307639 0.10109783 0.014672679 0.024340596 -0.022093503 -0.07680749 -0.07732384 0.026311848 -0.03225649 0.106542245 0.01556118 0.013679176 -0.107277475 -0.023043567 0.0955624 -0.07114762 -0.10349771 0.004784822 0.088299625 -0.0064493227 0.036033828 0.04526626 0.0900072 -0.026523622 0.07115638 -0.03910467 0.095157005 0.019918725 0.020652346 -0.029170878 -0.09929099
임 -0.01793748 0.051762234 -0.026691321 -0.01135583 0.11493269 0.06944191 -0.04399841 -0.045929857 0.0949668 0.055646025 0.052988328 -0.01058893 -0.010669887 0.015170576 0.014216174 0.012926022 -0.07391099 0.08633186 -0.043154754 -0.025738858 0.09495028 0.043282673 0.020481622 -0.012101875 -0.029287755 -0.0032501724 -0.011695561 0.030206636 0.003512532 -0.023346227 -0.015926547 0.044565685
ㅋ -0.10890874 -0.009635739 -0.015405053 0.03176412 -0.02443005 -0.06421136 0.06223768 -0.023580333 0.0446817 -0.059337575 -0.007231401 -0.03554411 0.06358591 0.062449355 -0.06373692 0.049112838 0.012449049 0.016215237 -0.059485488 -0.01373765 0.09165021 -0.024526592 0.15221937 0.0050879465 -0.03540554 -0.004980368 0.03362834 0.016359858 -0.1326119 0.0016481108 0.023719775 -0.024202636
3 0.038530163 -0.0088211475 -0.036663927 -0.016339844 -0.013540264 0.03952579 -0.01340567 0.10528367 -0.11660925 0.07171552 0.0008919511 0.09237512 -0.11823041 0.012096398 0.1234725 -0.036460347 0.014063777 0.06913236 0.099453054 -0.0008562549 -0.104420856 -0.094733596 -0.12011056 -0.030830316 0.06388809 -0.053449318 -0.0054245135 -0.090566106 0.10366765 -0.07239595 0.074012026 0.083827674
기대 -0.11834086 -0.0037887716 -0.09346885 -0.003515866 -0.24966964 -0.065036364 0.066639125 -0.07127482 0.06671127 -0.018600365 -0.024878899 -0.09391588 0.10578342 0.04599766 -0.05047794 0.028661719 -0.09565516 -0.20320246 0.03838232 -0.050280258 0.07353514 0.022506982 -0.0525661 0.08649628 0.07559468 0.015456842 -0.047289792 0.01890063 0.014967607 -0.026682027 0.02933363 -0.003134303
입니다 -0.11587208 0.019844659 -0.039845053 0.07593786 0.17384727 -0.032452907 0.00026294708 0.006530642 -0.008710305 -0.0534755 -0.0006676587 -0.0031247041 0.03361363 0.03469851 -0.11487061 0.08464335 -0.025328454 0.18717803 -0.04664727 0.0547317 0.06383002 0.01949827 0.13718167 0.076061815 -0.13713062 0.09602352 0.020254197 0.019236859 -0.10947969 0.040897563 0.00746503 -0.041954253
건 -0.06727061 0.02290478 -0.108683154 -0.021447279 -0.13905399 0.08444341 0.10849082 -0.011236516 -0.011135593 0.061490264 -0.03430348 0.039099783 -0.10504337 0.054236155 0.049013212 -0.12576737 0.0016465621 -0.065910466 0.10603067 -0.06463152 -0.07224625 -0.07858454 -0.035572737 -0.10566139 0.10993953 -0.027981758 0.039707102 -0.09881989 -0.019303875 -0.040411443 0.10838802 0.06212772
라는 0.09657046 0.036792483 -0.013178484 -0.061533168 0.09432001 0.046588518 0.024061946 0.05922102 -0.055342473 -0.0026435372 0.021187179 0.06622821 -0.035570104 0.044815317 0.049556162 -0.03591513 0.08570907 0.087801725 -0.021124512 0.020600025 -0.09548417 -0.048557185 -0.022538032 -0.027239699 -0.008495449 -0.03457587 -0.021157034 -0.04050204 0.025112024 -0.037388902 -0.030395223 0.05339073
분 -0.036162283 -6.347659e-05 -0.11069354 -0.09972145 -0.22555843 0.057735432 0.064366154 -0.00835019 -0.033378325 -0.0022131498 -0.005776815 0.022946961 -0.0016617905 0.026008792 0.11724868 -0.11482115 0.033025485 -0.14501481 0.056101024 -0.10368335 -0.091004975 -0.030284552 -0.07820844 -0.10177758 0.1309393 -0.1321043 0.048773814 -0.10855149 0.013878736 -0.08361343 0.102306314 0.062054936
완전 -0.013931268 0.13392621 -0.055156235 0.09529359 0.06764664 -0.01587804 -0.1085984 0.064032905 0.21517578 0.018316323 0.008671876 -0.12868404 0.108806096 0.05415796 -0.06203507 0.11745656 -0.031029072 0.28647754 0.18845862 -0.007234648 -0.08618212 -0.019880129 -0.04766836 0.11916526 0.29543754 0.11265862 -0.02198029 0.026264228 0.31918877 -0.04454811 -0.08361289 -0.058860347
다는 0.027187489 -0.091624856 -0.033141017 0.017898971 -0.085673675 0.0024344393 0.046665348 -0.06763845 -0.06457081 0.037409432 0.09942551 0.03202885 -0.0986871 -0.051457968 0.040390786 -0.09453456 -0.040997755 -0.15263373 -0.00084517 0.038699217 -0.111993365 0.009152568 -0.0027499492 -0.058963854 -0.025128793 -0.052914474 -0.016534856 -0.0073820306 -0.06876132 0.023495905 0.101446465 0.003766965
참 0.026077885 0.091838084 -0.036127727 0.0073896446 0.058654804 0.01577861 0.0130672725 -0.009285407 0.014213398 0.015900176 -0.003566774 0.037609734 0.027580105 0.08185378 0.035017014 0.014653182 -0.018476548 0.13520804 0.02986638 -0.0116804475 0.019746877 -0.048575345 -0.021690462 -0.009169713 0.025060179 -0.0029640028 -0.009066519 -0.04541885 0.083026536 0.0065226643 0.020737983 -0.012075101
많 0.17743373 -0.09608332 0.10298925 0.044992648 0.027601775 -0.084411666 -0.10653588 0.012477812 -0.0056379614 -0.007269932 0.03029698 -0.023908429 -0.010004406 -0.15246178 0.047391485 -0.014110928 -0.022862334 0.07598283 -0.05222164 0.09766785 -0.082307875 0.01171937 -0.028365053 0.037334766 -0.06625285 -0.042971898 -0.07460246 0.014936751 -0.01900965 0.062752284 -0.0678107 -0.015896767
처음 0.038804963 0.13783436 0.014565576 0.016855385 0.22259794 0.0752027 0.026744045 0.027265994 -0.056072466 0.07189146 -0.006362221 0.06269938 -0.08847487 0.05443193 -0.0034384178 -0.016149925 0.021026116 0.21058725 0.023220548 -0.013468965 0.036488313 -0.060622193 0.068778954 0.038795717 -0.09670881 -0.040643193 0.06079492 -0.026480284 -0.027205471 0.007780505 -0.03644845 0.006458869
장면 0.018445244 -0.011967736 -0.0409886 0.031877942 -0.018835913 0.035241507 0.032378986 -0.013347606 0.06270596 0.03418241 0.016431328 0.01598886 0.05491133 0.012306837 -0.051779315 -0.037816502 0.04543743 -0.0047472008 0.04688824 0.014796499 0.0018202283 -0.025514161 -0.076781355 -0.0061027515 0.014677452 0.04029396 -0.006203584 0.022112243 0.090926774 -0.01907198 0.05117226 0.00344544
대 0.027110554 -0.035889972 0.03564845 0.008175715 -0.15773043 -0.061401505 -0.0041839024 -0.02260799 -0.07422923 0.034924094 -0.052599616 0.01626146 -0.08216844 -0.008795895 0.03081078 -0.098142266 0.101874836 -0.15775108 -0.018285468 -0.029498149 -0.105691284 -0.03695898 -0.087225154 -0.036131002 -0.010253602 -0.060210913 0.03263251 -0.08379859 -0.08473395 -0.043324403 0.04719696 0.04598832
아깝 0.08642414 0.07893742 -0.07563381 -0.1956997 0.22941127 0.08742711 0.15451321 0.06933912 -0.17098385 0.10322175 -0.106952906 0.11466042 -0.08272206 0.13459365 0.11370493 -0.14259624 0.2320613 0.24501781 0.05883292 -0.17217326 -0.108238295 -0.12167039 -0.12314884 -0.1821805 0.033222347 -0.21377626 0.15293632 -0.12858999 0.16434354 -0.115005 0.09856523 0.13450299
다가 -0.082069695 0.11282289 -0.11505714 -0.012579407 -0.09789816 0.035335883 0.02994323 0.07348312 0.030119488 0.060176224 -0.05173238 0.010489405 -0.011503059 0.023670275 0.024453731 0.029577628 0.001946912 0.04225759 0.12553063 -0.1059892 -0.0631087 -0.04821413 -0.16170833 -0.08074069 0.20196958 -0.023695283 0.07598697 -0.048239604 0.2551515 -0.052334417 0.013389849 0.014183726
으면 0.07310603 -0.060719155 -0.010191779 -0.017998131 0.0018968787 0.025755802 0.04313985 0.026390553 -0.070455424 0.027880242 -0.012401154 0.07894752 -0.060354408 -0.004456367 0.064579666 -0.027636867 -0.03510498 -0.02871609 -0.0340813 -0.06356523 -0.026679508 0.002311847 -0.07585801 -0.05993069 -0.055134833 -0.061689705 0.0128422845 -0.04394891 -0.110213295 -0.030616837 0.068738304 -0.011001381
지금 0.085244335 -0.07851961 0.109268606 -0.003584678 0.06445113 -0.053464696 -0.053281683 -0.02712043 0.06970881 -0.01182832 0.016772611 -0.1257798 0.010851025 -0.07433518 0.016446091 0.06329614 -0.07127534 0.010562693 -0.0887829 0.10892742 0.03081486 0.044999722 0.034419816 0.07301942 -0.02819696 0.03134813 -0.05501203 0.06216879 -0.009936751 0.06388445 -0.014178641 -0.05350833
모르 0.11948181 0.017489184 0.04717254 -0.033713356 -0.018282158 -0.0039248685 -0.107061744 0.069866374 0.0354731 -0.033911448 0.03949676 -0.103935115 0.013041095 -0.09258461 0.051576328 0.08343941 -0.038570214 -0.06705472 0.0763937 0.010152951 -0.06259952 0.027772302 -0.12840341 0.03652975 0.15794201 0.033708576 -0.0799722 -0.05469488 0.116501905 0.025530474 -0.10008429 0.014454493
이렇게 -0.07026932 0.08480133 -0.07036664 0.008542202 -0.019580517 0.031897884 0.040967744 -0.024293581 0.22763535 0.040016517 -0.07031208 -0.035318203 0.16092512 0.06964743 -0.098405674 0.028605416 -0.001313569 -0.043022413 0.054660045 -0.048310652 0.14064553 0.00080426416 0.03919045 0.05050014 0.21169272 0.1059884 0.06671776 -0.014026074 0.19650587 -0.01350941 -0.013473015 0.04051147
' 0.0011640344 0.03145623 0.030015077 0.026778487 -0.024490505 -0.04895831 -0.07159283 -0.031997964 0.024507567 -0.02484929 0.048942294 0.02908992 -0.043396186 -0.027782599 0.049116876 -0.008135122 0.023486473 -0.06557935 0.013180728 -0.019134898 0.016267985 0.027819598 0.04310741 0.03790149 -0.0029575191 -0.006284736 0.022199329 0.0076437443 0.024510674 0.005406967 -0.06313956 0.009372318
편 0.017406985 -0.14122707 0.049591012 0.036115255 0.047850005 -0.03461876 -0.019029016 -0.16674156 0.07400152 -0.09882608 0.08567426 -0.0621807 0.054096453 0.006640693 -0.048331905 0.029820373 -0.057832282 -0.06461261 -0.04604631 0.093289696 0.1609344 0.057392746 0.07233281 0.010372948 -0.07388739 -0.0047012637 -0.009226228 0.032852642 -0.17827612 0.09325851 -0.03683828 -0.054672062
일 0.057997603 0.03728487 -0.032406807 -0.006510294 -0.07132182 0.018710792 -0.019262869 0.08846648 -0.03513264 0.037636068 -0.060023718 -0.004099413 -0.016159754 -0.02023799 0.07808038 -0.055618163 0.036230046 -0.035630878 0.006607684 -0.06930223 -0.077671915 -0.06570571 -0.010208221 -0.03729649 0.012119114 -0.07407364 0.014790171 -0.09314332 0.121442266 -0.07416662 -0.02834188 0.005954635
돈 -0.1340629 0.099178635 -0.1412583 -0.1898831 -0.015445353 0.17410477 0.16053115 0.056625493 -0.13142139 0.16595075 -0.16697292 0.12030661 -0.079936326 0.15123335 0.19964759 -0.16488488 0.16924708 0.119719654 0.10250356 -0.20848757 -0.05243414 -0.18278414 -0.117096305 -0.10261907 0.083836265 -0.14759627 0.19247898 -0.16119309 0.049982034 -0.11870307 0.2508362 0.1729996
이게 -0.09818514 -0.03242479 -0.027270567 -0.026587538 -0.044450615 0.04692727 0.019881861 -0.04444104 -0.012884316 0.015496282 0.007471655 -0.010101964 0.044394076 0.075333916 -0.024188334 -0.025693627 -0.009555393 -0.0026401575 0.0021693243 -0.076481104 -0.001402454 0.02472847 -0.0032881952 -0.0063364524 0.00907876 -0.029195406 0.04104744 -0.0022155268 -0.03563708 -0.046366166 0.037867628 0.00019860786
성 -0.071718045 0.054729857 -0.015074027 -0.07462217 -0.014767392 0.08295548 0.055247765 0.028015638 0.02045757 0.042383645 -0.07271697 0.03169723 -0.04884538 0.020059159 -0.021798484 -0.052750662 0.050580718 0.017608805 0.027381906 -0.013622411 -0.011641115 -0.0398279 0.024777656 0.019722005 0.0317164 0.005522877 0.030863175 -0.01986023 -0.014788094 -0.065896794 0.05695776 0.0748553
느낌 0.017164178 0.06651399 0.021059347 -0.034381963 0.046353634 0.01671035 0.05557833 0.0250994 0.045472458 0.020142835 -0.013058238 0.005295979 -0.044779807 0.03984326 0.0012883067 0.058401357 0.041018054 0.11627967 0.06994647 -0.020646466 -0.051671986 0.027666407 -0.053826462 -0.02685556 0.0077547515 -0.02023901 -0.005663736 0.022183944 0.059583757 0.0027779299 -0.008392902 -0.03865339
시 0.015169691 -0.05036792 0.013106339 0.00083582196 -0.08933159 0.029333722 -0.014321427 -0.012038767 0.03060759 0.039742425 -0.03031044 -0.035309903 -0.01737563 -0.0053095706 0.050032284 -0.04639767 0.03575411 -0.07701518 -0.009929986 -0.01980757 0.029455736 0.053473864 0.03601001 -0.010795315 -0.058095343 -0.04993192 0.025820762 0.022166818 -0.0134078795 -0.00028382035 0.06545609 0.040465225
이야기 0.02044123 0.039204877 0.017373215 -0.021682734 0.010725055 -0.0099133635 -0.007027115 -0.038797922 0.11999087 -0.039612085 0.0040086834 0.010547941 0.06135142 0.045053754 -0.051865015 0.03895347 -0.055303585 0.045497227 -0.035405234 -0.027894905 -0.02574636 0.02134529 0.021037197 -0.018269585 -0.02975031 0.05762273 -0.028964313 0.06767592 -0.020090748 -0.012894086 -0.0073646177 -0.057757933
최악 -0.45921242 0.39676553 -0.41071892 -0.37189236 0.25923827 0.3890896 0.3741863 0.29153964 -0.11310877 0.4061538 -0.3877456 0.2221106 -0.10623487 0.43594837 0.34945136 -0.41047552 0.29274574 0.47567338 0.43589813 -0.4441561 -0.17303485 -0.28299728 -0.27561632 -0.300009 0.40879503 -0.21783751 0.3549209 -0.33925247 0.21471588 -0.3022691 0.48532304 0.42639962
된 -0.05176365 0.022598818 -0.0048398157 -0.021955978 -0.06395056 -0.038272623 0.032986823 -0.012119812 0.042964656 0.070387624 0.02343263 -0.021006456 0.0033884477 -0.0024649915 0.051448796 -0.04999124 0.02151642 -0.033830557 0.0033005166 -0.05698237 -0.0026185869 -0.063381195 0.03777208 0.005363628 -0.012163855 -0.015049245 0.061357994 -0.047505356 -0.019596295 -0.012280098 -0.0045227194 -0.020041855
봐도 0.11642696 0.034235314 0.06916896 0.079198636 0.21744357 -0.047722764 -0.047629975 -0.072779 0.11456347 -0.09531371 0.034793038 -0.03816686 0.085789755 0.056926936 -0.11047982 0.13098584 -0.015468358 0.29753503 -0.13203399 0.146659 0.1571164 0.04575695 0.17992398 0.08549542 -0.1401543 0.042490683 -0.07783053 0.104490265 -0.01950215 0.10031107 -0.12010101 -0.1272826
님 0.0069475756 -0.1146366 0.12753378 0.12697704 -0.0021275594 -0.107916296 0.0001941676 -0.07707484 0.003919228 -0.14272392 0.08978705 -0.04923491 0.018634884 -0.04889067 -0.09683815 -0.0039765923 -0.10549069 -0.077062994 -0.14854693 0.060310207 0.15412536 0.08722695 0.12501873 0.111673556 -0.1651923 0.06594412 -0.046069298 0.070745595 -0.19881588 0.08671803 -0.028840216 -0.042545017
어서 0.036241286 0.035480425 -0.0184371 -0.0032889703 0.17173783 -0.032676395 0.060211204 -0.007522544 0.011925392 -0.036876 0.01481947 0.046101294 -0.05241939 -0.0012097609 -0.02314479 0.06912767 0.036373124 0.15469943 -0.011160057 0.05044624 0.041434128 -0.033635713 0.069079325 -0.011249673 -0.065881714 -0.031171018 0.029705098 -0.02518025 -0.059324972 0.015163472 -0.034930117 -0.041898206
애 -0.036913257 0.010769892 -0.043924857 -0.06393942 0.016506268 0.041469283 0.10077675 -0.018130546 -0.07891959 0.07419629 -0.0071852757 0.099387825 -0.0452813 0.10306465 0.062471457 -0.023763435 0.06541173 -0.005139866 0.04501875 -0.0135392845 -0.0011578887 -0.019680101 0.038016893 -0.06011813 -0.048064627 0.029527538 0.025741415 -0.055483133 -0.037316315 0.030725705 0.07893127 0.03322765
전 0.028319241 -0.0016920521 -0.01663075 0.075824834 -0.06847889 -0.009464255 -0.013198959 0.10824525 -0.025105624 0.013515408 -0.022689166 0.022535779 -0.0040015928 -0.12212582 0.04826267 0.07198637 -0.038497787 -0.1048147 0.061812818 0.04635348 -0.034630816 -0.043836057 -0.09544936 0.00049524015 0.016943492 0.061228096 -0.04756129 0.021172602 0.042997736 -0.035002057 0.035005808 -0.019514391
넘 -0.022217268 0.11337209 -0.07304805 0.08308561 0.01719722 -0.06859313 -0.0012637539 0.0012391473 0.16884434 -0.07650907 0.013829786 -0.021470081 0.10429261 0.034902096 -0.073360056 0.099660866 0.011662153 0.01846396 0.06742642 0.04091547 -0.018337693 0.06908622 0.011887651 0.04524272 0.20739216 0.064961374 0.010406788 0.052949857 0.18164426 -0.054677412 -0.11245578 -0.081347704
ㅠㅠ 0.018111486 -0.029487453 0.06490884 0.031457443 0.098578766 -0.08178616 0.0396201 -0.03798166 0.039340287 -0.087113306 0.03315615 -0.044428587 0.026381217 0.032783244 -0.07277161 -0.045447696 -0.047076665 0.1285981 -0.11541973 0.080918215 0.056187805 0.08335984 0.09965032 0.048250012 -0.09065527 -0.033409107 -0.076683916 0.04536378 -0.12588623 0.01607936 -0.025537938 0.020234099
인데 0.038122226 0.04902846 -0.007994502 -0.007882476 -0.017831631 0.06590801 -0.09321283 0.02574999 -0.020094944 0.009059078 -0.0008287503 0.10265407 -0.085474424 -0.055437677 0.051785 -0.017018868 -0.053397845 -0.06409849 0.044939764 -0.0047825156 -0.074234724 0.017491983 -0.01599873 0.02217671 0.02050086 0.053749777 -0.032507617 0.054559242 0.0781384 0.030886654 -0.034550555 -0.074884236
다고 -0.050162535 -0.07380176 -0.05891532 0.014118914 -0.29943523 -0.036806427 0.023948668 -0.051161047 -0.11396245 0.02047774 0.077997364 0.07229022 -0.049699146 -0.027729664 0.114874505 -0.0988719 -0.05727873 -0.2944578 0.08557109 0.016787104 -0.113162875 -0.07217101 -0.043250505 -0.075056165 0.016345978 -0.0896271 -0.028271118 -0.0844703 -0.055191513 0.013097159 0.12792039 0.044105813
이해 -0.06476637 -0.0339116 0.011257066 -0.041356638 -0.21064384 0.009277153 0.058935847 -0.061144814 0.0032969052 -0.0502816 -0.021939866 -0.056125335 0.098694056 0.02154812 -0.03972554 -0.043780673 -0.067828074 -0.11108068 0.043326676 0.008529145 0.006231628 -0.038748387 -0.12794882 0.031438034 0.036523655 -0.037649196 -0.033700824 -0.06561019 -0.07423041 0.03984241 0.08658755 -0.044510856
별로 -0.08176653 0.18259493 -0.1792598 -0.28771046 0.15258268 0.26685226 0.2665224 0.30312058 -0.23523317 0.13619223 -0.2293966 0.29240212 -0.22579898 0.2681597 0.27630952 -0.19136447 0.20469818 0.28958905 0.13213411 -0.26743743 -0.27523994 -0.2765013 -0.24587093 -0.2655879 0.14449489 -0.2583285 0.24367663 -0.21623561 0.24259496 -0.21340562 0.21039346 0.17977047
그리고 0.03716668 0.025578832 0.057561245 0.08202762 0.14881383 -0.09889735 -0.045685843 -0.05370527 0.13313285 -0.09125226 0.10602566 -0.09918624 0.13173439 0.023122676 -0.103174835 0.12390058 -0.04939901 0.06482049 -0.070956476 0.03153192 0.14869824 0.09819655 0.061691042 0.10051651 0.04203027 0.06366235 -0.092847556 0.047493786 0.03096807 0.08851607 -0.09087632 -0.07300703
명작 0.17392705 -0.26282462 0.21837458 0.18578494 0.067623414 -0.2123574 -0.14555727 -0.30153015 0.20695668 -0.21015 0.1965235 -0.2459851 0.19045861 -0.15919144 -0.18560374 0.21459316 -0.27136204 -0.013903398 -0.24165514 0.21510218 0.15204315 0.17972781 0.1592399 0.21916449 -0.13636361 0.19042377 -0.26326498 0.19409993 -0.3013657 0.19063418 -0.14999187 -0.21157102
여자 -0.1094834 -0.018692847 -0.026853846 -0.054661673 -0.15771079 0.034765944 0.054060306 -0.045350917 0.06998087 0.057526354 0.0084329825 0.008898928 -0.07891414 0.028378505 0.03741736 -0.14147857 0.07140381 -0.10791421 -0.0061045955 -0.014325935 0.07282998 0.009338629 0.031161897 -0.028342022 0.03922254 -0.027585499 0.09664792 -0.08997341 -0.041622024 0.044071287 0.05470062 0.09129299
^^ 0.116098434 -0.1012447 0.09800502 0.10920437 -0.0549229 -0.09354547 -0.13614143 -0.043203566 0.15525596 -0.08894438 0.0652506 -0.12956329 0.08445112 -0.113987334 -0.100384854 0.09873693 -0.0579344 -0.05740287 -0.031201301 0.047322556 0.0041126674 0.08369664 0.03773125 0.1438656 0.02492154 0.14011002 -0.1476987 0.1580008 -0.042726774 0.13026838 -0.13680041 -0.12663485
역시 0.062186036 -0.06372027 0.02230662 0.11592156 0.06573874 -0.08568671 -0.05459235 -0.09883041 0.09000416 -0.07746553 0.016758915 -0.07143292 0.107610926 -0.029997956 -0.05055868 0.065026306 -0.059517145 0.0029616074 -0.05213556 0.10000114 0.07754661 0.072170965 0.09960759 0.050991744 -0.005215768 0.07149961 -0.0418099 0.108782984 0.00016138595 0.09247824 -0.05953231 -0.027832286
난 0.10061332 -0.05049495 0.1131237 0.014799222 -0.04297484 -0.017049907 -0.12720674 0.068853684 0.13754989 -0.0088747665 0.03888322 -0.101151265 0.034413643 -0.13455914 -0.06597092 0.12317616 -0.049620815 -0.0059299194 0.049139395 0.023778658 -0.122951224 0.0854268 -0.028266504 0.114856295 0.0862008 0.09427398 -0.11340217 0.12071092 0.22244866 0.0040997164 -0.10828476 -0.061725702
이상 0.027715776 0.04948566 0.023033837 -0.01457182 0.11441916 -0.009263672 0.018489381 -0.02019919 -0.025013594 -0.007404518 0.032605547 0.015447885 -0.029101308 -0.018162355 0.0007485541 -0.044049736 0.053949576 0.12359398 0.042044464 0.011801269 -0.011000955 0.025923025 0.055335373 0.018618032 0.038723655 -0.0057939715 0.023779342 0.015307176 0.082028836 0.017715575 -0.012363743 -0.0152482055
또 0.025791632 0.0032073504 0.02119081 0.02596318 0.15041755 -0.059873953 -0.049215253 -0.05920319 0.04017673 -0.007670178 0.010016404 -0.008946594 0.022530124 -0.059743818 -0.094973706 0.074871585 -0.0030015078 0.09632325 -0.028493559 0.08799298 0.092901476 0.025443472 0.063560136 0.010179462 -0.073070034 0.068916425 -0.04165093 0.027970668 -0.045841943 0.061270557 -0.061514657 -0.093206786
걸 -0.081623115 -0.01724273 -0.060479358 -0.053243462 -0.10581318 0.042012673 0.040153697 -0.092969395 -0.028987588 0.05122421 -0.054414917 -0.018129677 -0.015373524 0.09233933 0.043542176 -0.11225254 0.07511304 -0.11910211 -0.0068487534 -0.049776573 -0.017476324 -0.056807157 0.029423771 -0.047570456 -0.00089390593 -0.07044208 0.031948637 -0.025843209 0.0061605074 0.019794581 0.08954555 0.011333948
한국 0.02913471 -0.040708434 0.012781496 -0.04515006 0.016859911 -0.051992763 0.055394042 -0.06540275 -0.032749064 -0.017031003 -0.0046439203 0.01095431 -0.026766723 0.01723351 0.00977828 -0.0140819745 -0.044195138 -0.08069154 -0.120729774 0.05088799 0.04656885 0.0024338646 0.0065337867 -0.03947383 -0.118820734 -0.11538476 0.020298673 0.006423534 -0.20084493 0.0032426368 0.04256982 0.009496702
는지 -0.076179564 0.09043661 -0.026673852 -0.042305812 0.01205721 0.06795913 0.052306004 0.031367917 -0.012650077 0.043715887 -0.013322202 0.03336899 -0.06908528 0.10761451 0.07114237 -0.087076835 0.04984753 0.041061275 0.015641725 -0.10625292 -0.0633547 -0.061961852 -0.042676046 -0.14266402 -0.00017316698 -0.09423196 0.06844389 -0.050821085 -0.009194946 -0.056206 0.11545647 0.115077056
많이 -0.026013477 0.017249811 0.024373418 -0.03865987 -0.038100287 0.026855355 -0.05233933 0.028673945 0.051038433 0.073508054 0.012635427 -0.05078676 -0.025703913 -0.03927865 0.04071595 -0.029113745 -0.015107374 0.012856503 0.072417416 -0.046032153 0.0077857096 -0.006707583 -0.033760764 -0.030675985 0.012878964 0.04740865 -0.01649626 -0.0010237232 -0.0069714463 0.016147338 -0.008374491 -0.0010214173
에게 -0.08440188 -0.071629785 0.06227989 0.13135135 0.05182385 -0.052677132 -0.0058739423 -0.13323613 0.016302241 -0.056205295 0.120800205 -0.070903584 0.103188455 0.052926254 -0.11421876 0.06346811 -0.10087518 0.06948331 -0.13379762 0.0575371 0.11696182 0.08018916 0.13432379 0.09761476 -0.079149455 0.054300725 -0.05483374 -0.01793875 -0.1386726 0.043800995 -0.048318516 0.011253781
부터 -0.024086708 0.09346985 -0.048136733 0.06504057 0.040192287 -0.04322819 0.03924743 0.031743176 0.0020635545 0.03436214 -0.017944813 -0.0033239303 0.060308266 0.043760195 -0.018684316 -0.004690474 -0.044688992 0.027841853 0.0002445774 0.011730793 0.04163991 -0.0027940106 0.052449122 0.011896338 0.020494785 0.06543761 -0.0028336481 0.039635234 0.018882113 -0.020909939 -0.026872788 0.046964947
만든 -0.030202102 0.087914124 -0.045263432 0.03538893 0.064210996 0.008862546 -0.051333494 -0.0072787437 0.043432616 -0.0055668587 0.08050622 0.028848208 -0.010745994 0.06793218 -0.0689614 0.043689772 -0.082953334 0.053708356 0.026383843 0.074467085 0.14179973 -0.010680828 0.09497227 0.029992234 -0.054319046 0.059928432 -0.052986998 0.030163174 0.0025424638 0.0143772 -0.0029498974 0.03250477
주인공 -0.083887376 0.054355532 -0.005802755 -0.025949193 0.058317788 0.07264219 0.051260505 0.102938265 0.05802752 -0.00781367 -0.08399687 0.012184869 0.005303631 0.08122658 0.016107805 -0.012572495 -2.9057956e-05 0.07284313 0.060738355 -0.075499654 -0.047485415 0.0002968911 -0.032414038 -0.005456497 0.04085636 0.014471194 0.026276806 -0.03744824 0.09494638 -0.08220608 0.041477136 0.025456885
받 0.015064083 0.016693393 -0.008965502 0.00012988236 0.00049498613 0.014723389 0.018011209 -0.019445006 0.061461344 0.023599634 0.02901481 0.061325904 -0.028504316 0.013622465 0.06337953 -0.027758272 -0.037050016 -0.0039547305 0.02449991 0.020209283 0.0045921127 -0.0008374138 -0.026470324 -0.004384312 -0.0256341 0.016607145 -0.03416395 -0.016090682 0.07766904 0.015390283 0.029578999 0.023219254
합니다 -0.021607261 -0.0027650744 0.04075109 0.08850779 0.110633716 -0.03271909 -0.049257524 -0.030901635 0.062468365 -0.10321587 0.06474386 -0.06611249 0.03848768 -0.010276742 -0.09436213 0.08267591 -0.07708085 -0.016591834 -0.085460454 0.030409671 0.09517293 0.09057303 0.05938887 0.12465378 0.023016743 0.09021894 -0.04682832 0.09671041 -0.017980825 0.083451144 -0.08959348 -0.032897305
우리 0.05674303 -0.07128924 0.11187461 0.064560376 0.052345153 -0.12116941 -0.019935817 -0.03853512 0.009577406 -0.04973363 0.044220246 -0.073242426 0.07281757 -0.07223593 -0.05556908 0.093813874 -0.021156436 0.059960365 -0.11954575 0.109452754 -0.0060689445 0.073064044 0.084732294 0.09328823 -0.06582179 0.058002874 -0.13515031 0.06493841 -0.037242472 0.008156233 -0.05936236 -0.019187694
두 0.0024715133 0.03570591 0.058324113 -0.0052480064 0.006766798 -0.02618615 0.012034208 0.039049163 0.009310881 -0.028963272 0.045939323 0.039414044 -0.014022833 -0.059167754 0.00038468066 0.04971201 -0.0151983695 -0.05551143 -0.08435193 -0.019046571 -0.033079464 -0.025015144 0.08636205 -0.015000312 -0.050054792 0.04822564 -0.01494013 -0.0019175978 -0.037987158 -0.033415057 -0.0014254175 -0.016180485
살 -0.008790561 -0.12835355 -0.0029549426 -0.08752028 -0.10688621 0.057663042 -0.032437872 -0.14683674 0.05963199 0.018432481 0.053219505 -0.033866182 0.07304147 0.0046799406 0.04541008 -0.08244309 -0.043128848 -0.16335182 -0.09049025 0.016287295 0.031693738 -0.016191779 -0.025403166 0.033345092 0.010141499 -0.059382375 -0.039575 -0.03609278 -0.04013505 0.052258056 -0.026400136 -0.044590283
!! -0.103284165 0.06887244 -0.08115749 0.018834282 -0.06395798 -0.035490934 -0.005866943 -0.004030568 0.104582444 0.05464995 -0.060031928 -0.05453549 0.06790952 0.025327502 -0.0061314604 -0.009170005 -0.009269416 -0.055326935 -0.029229147 -0.043234427 0.07117975 0.04907915 -0.0013223906 0.032492835 0.024079863 0.021092335 0.048679378 0.01812764 -0.01841926 -0.07898828 -0.03211114 0.013603233
길 0.007896755 -0.051025424 0.03474248 0.027148759 0.1043904 0.02648072 0.08996233 -0.032608993 -0.06947154 0.0043322574 0.015731955 -0.0048174905 0.028614914 0.07341761 0.012132225 -0.08105012 0.029642811 0.082434304 -0.10843806 0.014001979 0.020145463 0.012238344 0.028275035 -0.06918141 -0.0690321 -0.10079248 0.013725708 -0.028436165 -0.07282731 0.009367458 0.040791973 -0.03255124
엔 0.027594708 -0.0147875305 -0.027266683 0.008600359 -0.032487437 0.013669031 0.0056845453 0.065742284 -0.12882999 0.029497374 -0.037371326 0.15860577 -0.20069627 -0.021062184 0.04589975 -0.011473088 0.034273975 -0.03386674 0.03234119 -0.030297149 -0.11495133 -0.026199887 -0.05160676 -0.10110088 -0.060060684 -0.057933785 0.014330402 -0.013196298 -0.006330729 -0.004636003 0.03664183 0.027228916
괜찮 0.085220434 -0.09626346 0.14686792 0.14575896 0.13397886 -0.1713221 -0.114384234 -0.16365102 0.15208502 -0.10007898 0.09207607 -0.09791656 0.13375917 -0.035785835 -0.13517393 0.08218052 -0.10453824 0.0033464918 -0.14656058 0.1141687 0.24852897 0.12577942 0.22109829 0.09344526 -0.18428989 0.22968288 -0.11764459 0.13616309 -0.20143172 0.13972609 -0.12344121 -0.100087315
기억 0.037275672 -0.004060396 0.082868375 0.06383229 0.11505815 -0.048972473 -0.09675216 -0.108690515 0.16908845 -0.06449632 0.085542865 -0.0927502 0.14885433 0.02663157 -0.091450855 0.11514511 -0.06368698 0.1865183 -0.082066126 0.0661432 0.17709567 0.10190411 0.097551465 0.07033541 -0.013879672 0.16923077 -0.097329825 0.1166218 -0.015761314 0.109654635 -0.095376864 -0.054858334
연출 -0.03858329 0.14159417 -0.06324843 0.028660255 0.022387492 -0.0453911 -0.014354174 0.06666313 0.022679133 -0.05451231 -0.056296974 -0.039369304 0.03904076 -0.025921458 -0.019898992 0.034474976 0.01735506 0.07669997 0.054219417 -0.059285335 -0.042237863 0.01743239 -0.047243964 0.040455468 0.119544216 0.06345452 0.0042445417 0.014303685 0.09173447 -0.04860926 -0.058725808 -0.022370301
한다 0.06088237 0.03870063 0.07386809 0.045487747 0.061914276 0.017694851 -0.06484019 0.006299905 -0.011603874 -0.056443986 0.0179686 -0.00054441276 0.030810637 -0.041157246 -0.04917082 0.10160485 0.022428393 -0.009121457 -0.020453453 0.07521764 -0.0076927138 0.009170125 0.0021840262 0.015129022 -0.08225196 0.07236838 -0.05535299 0.00755519 -0.003363646 0.014027041 -0.11864308 -0.04663717
때문 -0.11843969 -0.06628108 -0.049523268 0.093707204 -0.06395531 -0.11353767 0.025440106 -0.0516177 -0.0013607021 -0.04310125 -0.0033628372 -0.055784777 0.104657136 0.033361826 -0.0400063 0.065542035 -0.08008836 -0.117855966 -0.053708337 -0.025709668 0.07715244 0.050994374 0.016389834 0.024959672 -0.036808755 0.05404009 -0.019702202 0.047659725 -0.16254462 0.0063474546 0.07200136 0.03651259
이나 -0.11291038 0.04031446 -0.040544298 0.0003932557 -0.058992498 0.06814561 0.017432367 0.08002678 -0.050329477 0.08089966 -0.06214955 0.009034898 -0.06837032 0.041809965 0.0679482 -0.06555806 -0.013443101 0.0018008512 0.08634327 -0.027789436 -0.011269847 -0.053747308 -0.021250024 -0.03722044 0.110879794 0.015690157 0.070184655 -0.09815589 0.028530361 -0.032329366 0.026259039 0.042849842
ㅎㅎ 0.0015511685 -0.146466 0.15072611 0.04321539 0.0015770074 -0.14109837 0.07222243 -0.19161578 0.0465234 -0.1260645 0.17902584 -0.06682957 0.08749418 -0.013195623 -0.045580596 0.0074375165 -0.08371413 0.010924039 -0.116585955 0.11518778 0.1903904 0.12785606 0.13567486 0.01038258 -0.24731877 0.008618091 -0.06546834 0.09362899 -0.1933749 0.12463666 -0.0031512948 0.012825162
요 -0.055057846 -0.05954225 0.082223214 0.077863276 0.10190742 -0.071877465 0.047618456 -0.052444715 -0.026183236 -0.078447916 0.06557873 -0.019364724 -0.022744302 0.07226906 -0.039768472 -0.013857658 0.006304099 0.07395748 -0.082006864 0.034898136 0.089254804 0.07675931 0.119917676 0.029189136 -0.15209511 -0.031149775 -0.021119 0.039933328 -0.18234359 0.030204248 -0.008506762 0.021341404
저 0.048681337 -0.022002045 0.10982331 0.09107941 -0.00022256645 0.0046558105 -0.16747247 0.060850903 0.0416126 -0.021728436 0.077627264 0.025320813 -0.04167635 -0.14758584 -0.059461173 0.057202503 -0.06605081 -0.08427462 0.005459551 0.046557944 -0.027928105 0.06118521 0.006060598 0.051960073 0.024389133 0.06922173 -0.074833855 0.07206098 0.05245279 0.072018735 -0.11337064 -0.039421294
재 0.078828044 -0.03513031 0.04104959 0.15178521 0.08677183 -0.15825543 -0.059414156 -0.11801227 0.076976106 -0.09171112 0.19055437 -0.06544996 0.036171824 0.030735942 -0.07664561 0.081272416 -0.05375189 0.010206584 -0.07634123 0.12972298 0.10118061 0.12519737 0.1209696 0.106357254 -0.107371375 0.12626253 -0.053609807 0.07959363 -0.07654007 0.06603464 -0.10935957 -0.09933759
꼭 0.12668377 -0.0716514 0.18333192 0.024455797 0.0893684 -0.08149207 -0.18679093 0.004541849 0.15972395 -0.14288947 0.1286108 -0.13592197 0.14384001 -0.13231455 -0.07735713 0.1412327 -0.034797467 0.05700137 -0.14564566 0.092975296 0.042675003 0.096255 0.17841417 0.09118643 -0.11462569 0.039426718 -0.15526141 0.12789065 -0.0411918 0.04090578 -0.16670547 -0.090882845
랑 -0.07491682 0.088898554 -0.022584692 -0.0063306526 -0.027422708 0.09048443 -0.042049006 0.00712835 0.091586106 0.08226433 -0.016868697 -0.055285063 0.020481864 0.03916204 -0.04563424 0.011192355 0.011866585 -0.09435273 0.05115457 -0.020771775 -0.022993898 0.0044888654 -0.023807563 -0.0054858224 0.10272548 0.011446957 0.048609648 0.07544893 0.12667383 -0.020970268 0.03485715 -0.025038237
며 0.031411063 -0.033529427 0.031552985 0.02609067 0.045519844 -0.008395721 -0.030154139 0.017798696 0.032640744 0.053188317 -0.0057967165 0.021435399 -0.03169675 -0.0148345465 -0.035778992 0.029547373 -0.035336185 0.001488775 0.019715643 -0.0065612993 0.03044983 0.020029616 0.0075794565 0.024126563 -0.04287584 0.03893769 -0.026705386 0.015258677 -0.0046827137 0.0024215078 0.037368514 -0.024362743
현실 0.12138976 -0.10004059 0.10138555 0.1587909 0.046388242 -0.14223693 -0.16481663 -0.076971635 0.07604144 -0.12661496 0.16899765 -0.08445259 0.020090684 -0.11744024 -0.07739718 0.041302077 -0.10038556 -0.058441576 -0.14552854 0.13965835 -0.01807485 0.07439412 0.08483797 0.07465546 -0.1113257 0.09770211 -0.07474867 0.076339096 -0.071122594 0.078571655 -0.14015716 -0.15312599
긴 0.04501084 0.00024944305 -0.042442665 -0.024383578 -0.15861759 0.04251158 0.074732564 0.119673885 -0.15190308 0.010360545 -0.064475924 0.05947364 -0.11414391 -0.010537642 0.12773757 -0.053003296 0.093790114 -0.2043543 -0.0059807207 -0.023512885 -0.17186452 -0.05149332 -0.11491528 -0.08814217 0.10078014 -0.13180085 0.012555076 -0.14005117 0.11937142 -0.0005039774 0.0033977344 0.06974377
ㅡㅡ 0.013927404 0.08921635 -0.043224327 -0.16192396 0.05408229 0.11615952 0.18481337 0.032233883 -0.15510911 0.20469713 -0.008661759 0.19213694 -0.20456126 0.15917474 0.1572848 -0.20326509 0.16877818 0.15557735 0.06411789 -0.13064921 -0.09605703 -0.10481723 -0.04549113 -0.19930848 -0.070831574 -0.2042235 0.15550627 -0.15521224 -0.026134977 -0.059123192 0.18318857 0.12737757
무슨 -0.029643197 0.14930286 -0.09413162 -0.20144312 0.007633234 0.1346696 0.11660445 0.102978095 -0.19435006 0.066835634 -0.13236699 0.12917599 -0.095797904 0.13920611 0.10975833 -0.12899713 0.18585181 0.11095686 0.1483273 -0.2337784 -0.19523942 -0.14152232 -0.1775605 -0.17188928 0.15989758 -0.19848824 0.19151282 -0.17301628 0.17148232 -0.16352808 0.16031723 0.16103037
내내 0.005607935 0.051188946 -0.057110704 0.04812466 0.058274563 0.040189944 0.016645972 -0.0047511742 0.098727174 0.014803359 -0.062148858 -0.08245493 0.04516992 -0.018962268 -0.05559974 0.023169817 0.05811542 0.13217661 0.10798025 0.0043475404 -0.028095713 0.019890208 0.009096678 0.006108345 0.15041487 0.051512416 -0.04505148 -0.014594882 0.15985863 -0.046904862 -0.033759456 0.010844146
결말 0.10052068 0.043423627 0.004637699 -0.04634399 0.118817955 0.00801743 -0.013528238 0.01714826 -0.07938887 0.008484541 0.062327456 0.094430685 -0.015475907 -0.024097964 0.08256339 -0.04097022 0.04705185 0.13497739 -0.06382862 -0.028973835 -0.07816128 -0.00619811 -0.008507588 -0.09273461 -0.07261281 -0.090238616 0.042356662 0.0074744513 -0.019488685 -0.04285499 -0.023877177 -0.027911345
죽 -0.06491552 0.039233096 -0.0534627 0.014019649 0.08503486 0.06631156 0.049771342 -0.017733712 0.03479238 0.078427754 -0.06515574 -0.023453254 0.058678403 0.026989143 -0.03438267 0.014950788 0.0662257 0.048813533 -0.03139048 -0.00957408 0.07988781 0.0060872347 0.072144635 -0.026661221 0.030530658 0.028695889 0.07906949 -0.034454525 0.014076475 -0.035091408 0.093032025 0.020601014
남자 -0.008091446 0.030635992 0.034812216 0.049230132 0.1055904 0.031615134 -0.011260618 -0.11529929 0.053690147 0.040084053 0.014773085 -0.005289184 -0.003924048 -0.011695771 0.072787136 -0.011115386 -0.010159499 -0.0037432762 -0.011483373 0.0200373 0.13593291 0.017995786 0.04976757 -0.03911023 -0.05573455 -0.047614165 -0.03100954 0.01929718 -0.07296948 0.06257687 0.0008618808 0.021017397
세요 -0.03313275 0.045575902 -0.0497099 -0.003381429 0.0053978562 -0.0030675766 0.047978986 0.01791598 0.0074051484 0.0074859103 -0.021419518 -0.04745226 -0.030248784 0.0054863994 0.03299432 0.017975615 0.019459054 -0.011002607 0.002654067 -0.013935074 -0.021164823 -0.005038999 0.028445404 -0.018659675 0.073222585 -0.04615681 0.009441166 -0.04584382 0.017206594 -0.065026626 -0.03816106 -0.0046262853
전개 -0.14675319 0.07296486 -0.14045295 -0.075628385 -0.051785175 0.027581457 0.12844479 0.011571855 0.067813635 0.06834796 -0.11970989 -0.04399241 0.05112876 0.12902522 0.010056911 -0.056209043 0.042880666 -0.00046865476 0.062063236 -0.07655407 0.03659031 -0.098899186 -0.024242759 -0.068843015 0.15465136 -0.09444844 0.076035686 -0.10456415 0.074524626 -0.118830554 0.12521614 0.10837537
마음 0.17187917 -0.086118944 0.17603143 0.12752493 0.12569852 -0.113768734 -0.18753608 -0.1167161 0.07850289 -0.11176055 0.12356609 -0.07774747 0.062662855 -0.1515333 -0.03658531 0.094511695 -0.12900768 0.12681587 -0.042320665 0.15013924 0.06916867 0.1089825 0.13351041 0.10977591 -0.05794034 0.09440325 -0.16001636 0.07279973 0.030566314 0.13406341 -0.13009197 -0.087542
소재 -0.023177352 -0.007155505 0.00056785165 -0.06983037 -0.18563522 0.038526107 0.0045729117 0.005677743 -0.07456859 0.049918618 -0.008033038 0.024424838 -0.13224173 -0.017103162 0.077517845 -0.026017332 -0.013134582 -0.2002588 0.05687288 -0.036855068 -0.058617476 -0.067699306 -0.051705126 -0.010891506 0.07920673 -0.04005861 0.021595381 0.00974893 0.10708658 -0.01685135 0.0566417 -0.022620253
속 0.064703 0.019593742 -0.0027304979 0.03161298 0.14255589 -0.02514615 -0.042412303 0.077053964 0.023988174 -0.03698813 0.029032568 0.03527443 -0.05364899 0.05623386 0.009898143 0.013370592 0.06947992 0.14715809 0.018224139 0.011267863 -0.019633397 -0.01608542 0.032445572 0.022842634 -0.053230826 0.037287973 -0.02201386 0.020793462 0.031940926 -0.04312648 -0.09630866 -0.055984564
공포 -0.079758294 0.09515036 -0.029462984 -0.0056217154 -0.040209282 0.06608057 0.01891554 0.025172023 0.033817224 0.04773924 -0.07739246 -0.013691223 0.06959422 0.043789923 -0.046832923 0.041277695 0.0320893 0.044843115 0.1353518 -0.07472863 -0.01243411 -0.0021754163 0.0027723499 0.018875655 0.12813103 -0.009087967 0.013383786 0.0403084 0.06472163 -0.00752408 -0.014393627 0.003716444
아서 0.02811248 0.07237328 0.019641932 -0.025328696 0.07170028 0.028450979 0.04085876 0.055761553 0.092550375 -0.028821595 -0.029067842 -0.01333207 -0.02313895 0.091932036 -0.025646215 -0.0020724474 0.047907088 0.10669965 0.07479483 0.009633574 0.028167333 -0.072038494 -0.027751649 -0.02296622 0.033625446 -0.018971661 -0.011966734 0.017862312 0.10784063 -0.048952993 -0.08696235 -0.024242088
다른 0.08887529 -0.051276207 0.044024907 0.057008073 0.090206966 -0.022386748 0.030947652 -0.05683989 -0.07999025 -0.05012723 0.0035056209 0.046259012 -0.0811389 0.034792654 0.01859266 -0.040745266 -0.04148619 -0.009929828 -0.08958833 0.01113846 0.022352427 0.034911897 0.008185601 -0.004768994 -0.150453 -0.06945182 -0.02423759 0.007865925 -0.12754984 0.07315218 0.04473241 0.02842029
씨 0.011332802 0.00056292466 0.032831267 -0.03731971 0.09827746 -0.012933538 0.073037684 0.019471733 -0.04156528 -0.008111211 -0.017993815 0.035569016 -0.019520614 0.06753486 0.055645876 -0.10454507 0.027822547 0.013392596 -0.03190056 -0.013572856 -0.025802204 -0.066170774 -0.082166985 -0.045742825 -0.112859376 -0.12814675 0.016856348 -0.09670982 -0.0396482 0.01879655 0.038014222 0.0474279
인생 0.1712575 -0.15170008 0.14000753 0.06345661 -0.019942781 -0.095319845 -0.18194745 -0.06194923 0.07543571 -0.07882509 0.09745087 -0.08855573 0.014254612 -0.28359067 -0.023535896 0.09622806 -0.18481456 -0.07451473 -0.111088224 0.160037 -0.023073522 0.12878361 0.10382165 0.068173215 -0.076819964 0.1067659 -0.16791692 0.08457114 -0.077551395 0.11225361 -0.14349633 -0.16941176
~~ 0.034716748 0.014325909 0.0360657 0.07039846 0.1260979 -0.04027936 0.07612662 -0.03696393 0.06046965 -0.02334203 0.032943334 -0.06629201 0.053526595 0.037666034 -0.09742694 0.019841213 -0.03592225 0.05242848 -0.030137444 0.02156304 0.12800834 0.04439408 0.097074196 0.02320511 -0.100967705 0.074260555 0.0064237197 -0.005431498 -0.03765121 0.076588586 -0.038959414 -0.009453442
짜증 -0.25740153 0.13910407 -0.2097572 -0.20939557 0.032650106 0.27121416 0.2337507 0.1902013 -0.14884888 0.25310314 -0.15845396 0.17698026 -0.1545879 0.21321484 0.17619932 -0.30095622 0.24193534 0.13909113 0.25394034 -0.2175155 -0.13143356 -0.18441512 -0.15261897 -0.26947165 0.16383299 -0.20247807 0.25329095 -0.25721553 0.08739439 -0.17091733 0.3143282 0.27481604
짱 0.03662305 -0.18489376 0.13479142 0.1511189 0.09498004 -0.18403 -0.1351414 -0.25483474 0.17079231 -0.16577698 0.11562485 -0.19790682 0.19283648 -0.10293311 -0.2181606 0.19518338 -0.22038771 -0.042742 -0.19261162 0.14866602 0.25851762 0.17099813 0.16981125 0.24208012 -0.16135392 0.22742328 -0.20796378 0.16334723 -0.2849668 0.13843818 -0.097384065 -0.18365037
뿐 0.0022593767 0.06054483 -0.073494576 -0.02153369 -0.102944806 0.09552572 0.030725269 0.058300458 -0.06631473 0.041891683 -0.081572965 0.031274658 -0.1285596 -0.020033197 0.061049893 -0.014691612 0.040911347 -0.027173176 0.05026555 -0.12274701 -0.08765384 -0.09370517 -0.14332227 -0.07510871 0.12098445 -0.10177686 0.091813155 -0.04908292 0.127933 -0.052113995 0.099914104 0.043651592
은데 -0.047356896 -0.09191222 -0.0199124 0.06321966 -0.09290552 -0.028842818 -0.030010665 -0.01678083 -0.024364978 -0.010264534 0.05850687 0.027953539 -0.04399646 -0.06444863 0.008870525 -0.04395059 0.029525708 -0.17826524 0.011176511 0.016703865 0.0019817748 0.03577234 -0.060102537 0.032843456 0.02436555 -0.005137543 0.011005054 0.0055926153 -0.017214911 0.045665283 -0.020623928 -0.043586913
별 -0.069308825 0.10628821 -0.027166864 -0.0032745912 0.06384816 0.04241333 0.005987563 0.093548566 0.038551595 -0.004894254 -0.061123136 0.043275904 -0.005200546 0.050954964 -0.028452888 0.010673145 0.05513124 0.118568756 0.02015637 -0.02126317 -0.020117737 -0.07266563 -0.03791304 -0.005630534 0.08395871 0.0259989 0.0016803587 -0.04292976 0.07325529 -0.054800525 -0.020714477 0.07307425
아요 0.070623145 0.0080622565 0.027343882 0.008329516 0.14537916 -0.108134516 -0.044786796 -0.020820636 -0.043886878 -0.025359537 0.046619404 -0.041545805 0.061438624 0.08799161 -0.053617813 0.014810686 0.03809856 0.13520476 -0.05983389 0.037167102 0.026203185 0.07880133 0.08560856 0.051361006 -0.12859924 0.024754567 -0.085973255 0.020841977 -0.08638781 0.059249047 -0.1061088 0.021562468
유치 -0.1431847 0.22091709 -0.13068734 -0.16420169 -0.03310852 0.20336004 0.103631735 0.26973993 -0.046147306 0.24725032 -0.23862395 0.18292388 -0.19883256 0.14747488 0.10894111 -0.07209128 0.12549017 0.13006617 0.1999025 -0.16189869 -0.19304587 -0.12094727 -0.18097769 -0.04743327 0.26758757 -0.06399891 0.17277142 -0.12141627 0.36244586 -0.18888909 0.08361627 0.09980439
가장 0.011146381 0.088579424 0.032024126 0.054276302 0.06413707 0.0021650083 -0.034467466 0.092188895 -0.012042595 0.0025447875 -0.009131384 -0.028610136 0.027564514 0.049125098 -0.040179007 0.06465106 0.018804742 0.12464996 0.06066095 0.05636326 -0.034590237 -0.016023867 0.055165634 0.011205151 0.06322318 0.095693044 -0.01938341 0.026328439 0.16811901 0.026406508 -0.05893178 0.032437786
필요 0.33959305 -0.2803397 0.2747898 0.09132276 0.15119377 -0.08955943 -0.15941654 -0.14389206 -0.001737127 -0.17724349 0.19120422 -0.026140539 -0.027713817 -0.2862016 0.031559713 -0.03335425 -0.04722111 -0.025933754 -0.19830102 0.16987437 0.074056044 0.101243705 0.107648484 0.057532117 -0.38408327 -0.10895324 -0.17989336 0.008397593 -0.23188692 0.27342987 -0.041821443 -0.04200548
음악 0.16135955 -0.13471317 0.16776186 0.0061026397 0.07664258 -0.046504274 -0.11726903 0.00938705 -0.027570553 -0.07913356 0.04783388 0.048625436 -0.05600767 -0.10921518 0.034720168 0.078097925 -0.065016754 0.0626034 -0.050126445 0.09271068 -0.086400494 0.024368528 0.046837837 0.011220787 -0.093934596 0.053991362 -0.08467076 0.018581841 0.044922452 0.105352946 -0.0762863 -0.11625996
) 0.018031597 0.017670527 0.022349365 0.00805589 -0.03261062 -0.031681985 0.026833223 0.01096021 -0.019988028 0.0012637135 0.04996598 0.06710717 0.014675103 -0.03954046 -0.020765912 0.030850038 0.017697485 -0.04102338 -0.013407764 0.012728779 -0.0038949293 5.4337223e-05 0.037612822 -0.016901148 -0.010690579 -0.031466994 -0.0046595773 -0.032093182 -0.0146431085 0.06868283 -0.017835587 -0.04527304
일본 -0.012708081 0.04236948 -0.022997893 -0.0644072 -0.05481062 0.05516783 0.06897324 -0.009921636 -0.10175455 0.06789985 -0.0323861 0.02756578 -0.1459179 0.0674542 0.051590964 -0.12384581 0.034595437 0.0023439259 0.025963701 -0.01760344 -0.01711555 -0.017168958 -0.081082925 -0.058760017 0.048081547 -0.04857207 0.055407796 -0.065674216 0.03422176 -0.011243798 0.1031063 0.033887833
낮 0.24027196 -0.2609294 0.2620746 0.17571627 0.18195954 -0.1783271 -0.16457514 -0.13269655 0.05245162 -0.21532777 0.16189678 -0.1421939 0.09475236 -0.20359837 -0.100885384 0.09834061 -0.054553133 0.12369617 -0.2760269 0.17987786 0.1973987 0.18580082 0.2306381 0.05805614 -0.36655203 0.06753812 -0.16481335 0.16392328 -0.31043914 0.19596623 -0.13538574 -0.1418468
아이 0.037572473 -0.002407219 0.07815491 0.06999131 0.07036619 -0.08575542 0.030307094 -0.09153484 0.064941026 -0.07726504 0.013164938 -0.027876899 0.0062186494 0.06426791 -0.007750137 0.0019943265 -0.021226192 0.1453954 -0.013269284 0.03184517 0.071589224 -0.008823458 0.05210484 0.017682614 -0.06147272 -0.02717793 -0.056979354 -0.004806823 -0.13387692 0.047783006 -0.029766789 -0.020410499
;; -0.03983892 0.017324561 -0.01713483 -0.08059049 -0.072587445 0.078708015 0.056597162 -0.008968129 -0.09645956 0.037970316 -0.02224349 0.095857285 -0.012567801 0.057060502 0.06743939 -0.06659471 0.07270678 0.011012828 0.052259985 -0.010543244 -0.036973596 -0.06770631 -0.054159656 -0.050472695 -0.06531085 -0.12746295 0.076303594 -0.080638796 0.026637888 -0.06672056 0.06943931 0.073040284
오 0.03244289 -0.030558717 0.057226073 -0.0020754142 0.11750708 -0.08471022 -0.048973892 0.055381272 0.021727182 -0.087394595 0.085067235 -0.004469566 -0.064880334 0.029943189 -0.053355873 0.022219092 -0.048760597 0.14902455 -0.012334739 0.025449019 -0.010409406 -0.007845562 0.11242498 0.05603578 -0.0741029 0.084331594 -0.05463374 0.04878642 -0.06466591 0.040968098 -0.05117524 -0.0014011516
반전 0.029908232 -0.037082337 0.045361124 0.029020498 -0.054499257 0.0464121 -0.027764201 0.0064173695 0.08777295 -0.06417001 -0.043398287 -0.029060962 0.022911424 -0.12807003 0.021321127 0.017218951 -0.08447464 -0.03358508 0.06407891 0.017658863 -0.020042127 0.016523352 -0.11938888 0.068030916 0.07466584 -0.003021871 -0.049777552 0.05654658 0.121225804 0.011783849 0.0073133884 -0.0057222056
수준 -0.17622079 0.09956015 -0.13811542 -0.16449243 -0.004824451 0.15109627 0.14874463 0.106499486 -0.05701486 0.17375173 -0.12437046 0.13177939 -0.04789377 0.18893686 0.09222742 -0.18641804 0.19225845 0.063507065 0.13057269 -0.10076188 -0.001634352 -0.16160613 -0.023426918 -0.1609138 0.047148287 -0.12070802 0.16302408 -0.13901287 0.06485374 -0.11420044 0.17150638 0.19686835
다니 0.10628722 -0.039701644 -0.008627592 -0.005195145 0.0036754748 0.04113021 0.10524021 0.007335114 -0.097721204 0.0038199893 0.0023286433 0.048717827 -0.032320667 0.052942242 0.05615412 -0.08642902 -0.0017945166 0.0034583644 -0.020667138 0.0024305629 -0.04968781 -0.076740384 -0.050201137 -0.12159965 0.041727267 -0.06677554 -0.0020041591 -0.10733522 0.029201338 -0.049942113 -0.0064312643 -0.008024717
웃 0.036008622 -0.047533747 0.031731185 0.071133204 0.11530387 -0.09072327 -0.055648193 -0.03855052 0.005545656 -0.064202875 0.08351592 -0.012971245 0.013580692 -0.07250665 -0.08389541 0.050259613 -0.00027391085 -0.019401088 -0.06839216 0.008103337 0.0380582 0.05410551 -0.0209175 0.040579464 -0.08451171 0.08241033 -0.057340138 0.0500605 -0.06763877 0.020339182 -0.072617635 -0.019092
매력 0.006691657 -0.024620704 0.03141114 0.101531096 -0.080657355 -0.11432972 -0.10548601 -0.13239235 0.19326417 -0.13277918 0.08823473 -0.16845645 0.20863636 -0.09171565 -0.18337047 0.10813251 -0.14635052 -0.046531975 -0.020345526 0.123120874 0.05535726 0.11894884 0.04658087 0.22607449 0.07903605 0.18473756 -0.07166996 0.114726156 0.028749393 0.07187392 -0.1381857 -0.13349845
맞 -0.11562477 0.08011386 -0.082753964 -0.07896523 -0.019021364 0.10255483 0.05457649 -0.028126907 0.12332001 0.03232605 -0.07908881 0.027673867 -0.014199049 0.05819476 -0.012986546 -0.061740007 -0.045817744 -0.020292876 0.09139531 -0.007744371 0.05536252 -0.030907799 0.026598658 -0.022926938 0.088942006 0.04868286 0.067113645 0.01453753 -0.016564395 -0.06447605 0.0840645 0.009848308
인지 -0.0070880605 0.107066765 0.02643739 0.019465957 0.112009495 0.007320423 0.053920954 0.015387136 -0.0325569 0.024280606 0.005470152 0.11131135 -0.07410342 0.07673063 0.01770409 -0.03670866 0.08958165 0.10270487 -0.020229593 0.021892693 0.03952926 -0.009471351 0.011712356 -0.0557957 0.013735554 -0.09399867 0.019675089 -0.09197403 0.0054571806 0.010687556 -0.039428283 0.053958822
가슴 0.05806842 0.073956974 0.08123424 0.09538597 0.24103256 -0.03420929 0.010670461 -0.12232733 0.16959235 -0.11278189 0.10656982 -0.06345384 0.12490556 0.134544 -0.1798423 0.11287996 -0.07299969 0.26778746 -0.066339605 0.11273264 0.24607472 0.07230877 0.2001692 0.123176366 -0.050958376 0.10325479 -0.07075335 0.06530445 -0.11954214 0.076470435 -0.08636841 -0.09886921
없이 -0.039027024 0.011024312 -0.06432613 0.0223807 -0.09324391 0.07407267 -0.053556077 0.071113065 -0.07513921 0.027298765 -0.041487038 0.0010075686 -0.08465358 -0.065921694 0.023233684 -0.003338321 -0.02685478 -0.1348418 0.037146363 -0.06352816 -0.09153948 -0.07034006 -0.08763503 -0.03535674 0.07850915 0.03402771 0.0622716 -0.08988823 0.15223786 -0.05046046 0.04243221 0.10272207
원작 -0.10760715 0.057180803 -0.022506736 0.012422029 -0.07162783 0.028477667 0.16189831 -0.004315656 -0.070346184 0.072720096 -0.060867943 0.042193726 -0.070992 0.07619209 0.09335105 -0.06930109 0.07142017 -0.009490368 0.032998182 -0.031518668 0.032841228 -0.04737261 -7.896037e-05 -0.06905222 -0.05797593 -0.082467966 0.03132732 -0.13894574 -0.11483281 -0.05691734 0.0992784 0.11324447
ㄷ 0.08721776 -0.018390728 0.074592516 0.014532538 0.05321419 -0.03663133 -0.055952054 -0.016870914 0.03844698 0.013247831 0.100044765 0.0056518638 0.0015946218 -0.009005376 -0.06100704 0.05887259 -0.035455227 0.015911283 -0.0068247127 -0.0039736857 0.025939524 -0.015740814 0.015798116 0.02231691 -0.03993952 -0.01976006 -0.06904132 -0.02614695 -0.03594546 0.07516779 -0.034351222 0.017197723
인간 0.13297705 -0.12684898 0.16984062 0.13505544 -0.011562542 -0.061879266 -0.15684418 -0.124077395 -0.018212423 -0.11484339 0.06629698 -0.06400085 0.012738241 -0.1660277 -0.063442305 0.047978047 -0.12934546 -0.06791123 -0.04314036 0.072681025 -0.0580115 0.11638597 0.0017766905 0.005589444 -0.06041049 -0.0017547258 -0.12200782 0.06819629 -0.025231563 0.11711716 -0.1357095 -0.11176657
데 -0.037615303 0.03462 -0.016193407 -0.029050302 -0.07770929 0.06892757 0.028090654 -0.030704992 0.07025791 0.02233903 -0.068588 0.0038512535 0.052551195 0.11787219 -0.010769301 -0.005714332 -0.015133034 -0.071091264 0.07132032 -0.02803388 -0.0035782529 0.02616831 -0.05807452 -0.01952403 0.051864672 -0.05065508 0.022933152 -0.0832425 0.038663503 -0.06754171 0.0030670469 0.05221706
굿 0.084162466 -0.19777524 0.15454683 0.2272755 0.09017722 -0.1669168 -0.22367485 -0.16068247 0.12213131 -0.18519853 0.14183123 -0.2243629 0.15455711 -0.1561408 -0.14883915 0.17499037 -0.21497032 0.055770673 -0.15728876 0.15899493 0.20772117 0.19140936 0.23356475 0.20934995 -0.18341905 0.1890365 -0.24017608 0.19181654 -0.21193168 0.19084606 -0.163694 -0.15690398
ㅠ 0.097801365 -0.041214596 0.07029888 0.02631147 0.019981796 -0.09393424 -0.08507841 -0.10329022 -0.030581674 -0.055550143 0.06886602 0.00048601316 0.07730771 -0.102255695 -0.016101804 -0.013389134 0.020360539 -0.040306933 -0.11084982 0.03591952 0.052969504 0.025366656 0.10483362 0.029881308 -0.113905884 0.06997343 -0.052577157 0.06881029 -0.04990273 0.029225316 -0.013030406 0.017182248
높 -0.08457247 0.08445315 -0.1429968 -0.09937157 -0.05409497 0.044075284 0.014911541 0.12394177 -0.023661336 0.04783601 -0.096438155 0.0009842848 -0.05414427 0.11729016 0.010063895 -0.052657392 0.033817366 0.008394054 0.20386551 -0.08772304 -0.0877484 -0.05459364 -0.10128319 -0.08878292 0.26902637 -0.018950544 0.026570363 -0.059362285 0.20208636 -0.062203556 -0.010721029 0.16082394
밋 0.14295599 -0.20257616 0.13057128 0.11150156 0.078694664 -0.088797234 -0.19358915 -0.1341857 0.046396118 -0.055709586 0.14818493 -0.048500687 -0.0006202013 -0.15417685 -0.057182197 0.050193362 -0.08748207 0.046071865 -0.14766622 0.14269617 0.12278293 0.10949039 0.15370812 0.027545568 -0.17214385 0.0026973432 -0.098444834 0.025296867 -0.1980893 0.2006257 -0.06088551 -0.09173522
